digraph Tree {
node [shape=box] ;
0 [label="X[206] <= 0.5\ngini = 0.742\nsamples = 1372\nvalue = [35, 215, 324, 123, 125, 550]"] ;
1 [label="X[304] <= 0.5\ngini = 0.714\nsamples = 1203\nvalue = [18, 215, 199, 96, 125, 550]"] ;
0 -> 1 [labeldistance=2.5, labelangle=45, headlabel="True"] ;
2 [label="X[55] <= 0.5\ngini = 0.679\nsamples = 1064\nvalue = [16, 115, 173, 96, 120, 544]"] ;
1 -> 2 ;
3 [label="X[280] <= 0.5\ngini = 0.648\nsamples = 986\nvalue = [15, 104, 112, 91, 120, 544]"] ;
2 -> 3 ;
4 [label="X[404] <= 0.5\ngini = 0.621\nsamples = 938\nvalue = [9, 104, 112, 88, 81, 544]"] ;
3 -> 4 ;
5 [label="X[461] <= 0.5\ngini = 0.682\nsamples = 779\nvalue = [9, 100, 110, 85, 78, 397]"] ;
4 -> 5 ;
6 [label="X[306] <= 0.5\ngini = 0.668\nsamples = 753\nvalue = [8, 100, 86, 84, 78, 397]"] ;
5 -> 6 ;
7 [label="X[189] <= 0.5\ngini = 0.654\nsamples = 729\nvalue = [8, 79, 85, 82, 78, 397]"] ;
6 -> 7 ;
8 [label="X[465] <= 0.5\ngini = 0.641\nsamples = 710\nvalue = [8, 79, 67, 81, 78, 397]"] ;
7 -> 8 ;
9 [label="X[416] <= 0.5\ngini = 0.628\nsamples = 694\nvalue = [7, 79, 52, 81, 78, 397]"] ;
8 -> 9 ;
10 [label="X[405] <= 0.5\ngini = 0.615\nsamples = 678\nvalue = [6, 79, 52, 66, 78, 397]"] ;
9 -> 10 ;
11 [label="X[195] <= 0.5\ngini = 0.656\nsamples = 589\nvalue = [6, 74, 49, 66, 76, 318]"] ;
10 -> 11 ;
12 [label="X[466] <= 0.5\ngini = 0.647\nsamples = 578\nvalue = [5, 74, 49, 56, 76, 318]"] ;
11 -> 12 ;
13 [label="X[101] <= 0.5\ngini = 0.638\nsamples = 569\nvalue = [5, 74, 41, 55, 76, 318]"] ;
12 -> 13 ;
14 [label="X[208] <= 0.5\ngini = 0.631\nsamples = 562\nvalue = [5, 74, 34, 55, 76, 318]"] ;
13 -> 14 ;
15 [label="X[158] <= 0.5\ngini = 0.606\nsamples = 520\nvalue = [5, 59, 28, 53, 67, 308]"] ;
14 -> 15 ;
16 [label="X[190] <= 0.5\ngini = 0.6\nsamples = 514\nvalue = [5, 59, 28, 53, 61, 308]"] ;
15 -> 16 ;
17 [label="X[476] <= 0.5\ngini = 0.591\nsamples = 507\nvalue = [4, 59, 28, 47, 61, 308]"] ;
16 -> 17 ;
18 [label="X[485] <= 0.5\ngini = 0.583\nsamples = 492\nvalue = [4, 59, 28, 47, 51, 303]"] ;
17 -> 18 ;
19 [label="X[356] <= 0.5\ngini = 0.571\nsamples = 483\nvalue = [4, 54, 27, 44, 51, 303]"] ;
18 -> 19 ;
20 [label="X[7] <= 0.5\ngini = 0.557\nsamples = 474\nvalue = [1, 51, 24, 44, 51, 303]"] ;
19 -> 20 ;
21 [label="X[330] <= 0.5\ngini = 0.536\nsamples = 450\nvalue = [1, 42, 20, 43, 48, 296]"] ;
20 -> 21 ;
22 [label="X[57] <= 0.5\ngini = 0.53\nsamples = 446\nvalue = [1, 42, 20, 43, 44, 296]"] ;
21 -> 22 ;
23 [label="X[247] <= 0.5\ngini = 0.523\nsamples = 442\nvalue = [1, 42, 20, 43, 40, 296]"] ;
22 -> 23 ;
24 [label="X[469] <= 0.5\ngini = 0.515\nsamples = 433\nvalue = [1, 36, 20, 43, 40, 293]"] ;
23 -> 24 ;
25 [label="X[242] <= 0.5\ngini = 0.509\nsamples = 430\nvalue = [1, 33, 20, 43, 40, 293]"] ;
24 -> 25 ;
26 [label="X[3] <= 0.5\ngini = 0.503\nsamples = 427\nvalue = [1, 33, 20, 43, 37, 293]"] ;
25 -> 26 ;
27 [label="X[251] <= 0.5\ngini = 0.497\nsamples = 424\nvalue = [1, 33, 20, 43, 34, 293]"] ;
26 -> 27 ;
28 [label="X[286] <= 0.5\ngini = 0.489\nsamples = 420\nvalue = [1, 30, 20, 43, 33, 293]"] ;
27 -> 28 ;
29 [label="X[172] <= 0.5\ngini = 0.481\nsamples = 416\nvalue = [1, 27, 20, 42, 33, 293]"] ;
28 -> 29 ;
30 [label="X[162] <= 0.5\ngini = 0.508\nsamples = 383\nvalue = [0, 27, 20, 42, 33, 261]"] ;
29 -> 30 ;
31 [label="X[275] <= 0.5\ngini = 0.497\nsamples = 378\nvalue = [0, 25, 18, 42, 32, 261]"] ;
30 -> 31 ;
32 [label="X[43] <= 0.5\ngini = 0.522\nsamples = 354\nvalue = [0, 25, 18, 42, 32, 237]"] ;
31 -> 32 ;
33 [label="X[86] <= 0.5\ngini = 0.548\nsamples = 331\nvalue = [0, 25, 18, 42, 32, 214]"] ;
32 -> 33 ;
34 [label="X[400] <= 0.5\ngini = 0.538\nsamples = 327\nvalue = [0, 25, 15, 42, 31, 214]"] ;
33 -> 34 ;
35 [label="X[137] <= 0.5\ngini = 0.563\nsamples = 307\nvalue = [0, 25, 15, 42, 31, 194]"] ;
34 -> 35 ;
36 [label="X[14] <= 0.5\ngini = 0.553\nsamples = 300\nvalue = [0, 21, 14, 42, 31, 192]"] ;
35 -> 36 ;
37 [label="X[298] <= 0.5\ngini = 0.548\nsamples = 298\nvalue = [0, 21, 12, 42, 31, 192]"] ;
36 -> 37 ;
38 [label="X[375] <= 0.5\ngini = 0.54\nsamples = 295\nvalue = [0, 19, 11, 42, 31, 192]"] ;
37 -> 38 ;
39 [label="X[231] <= 0.5\ngini = 0.534\nsamples = 293\nvalue = [0, 17, 11, 42, 31, 192]"] ;
38 -> 39 ;
40 [label="X[447] <= 0.5\ngini = 0.528\nsamples = 291\nvalue = [0, 15, 11, 42, 31, 192]"] ;
39 -> 40 ;
41 [label="X[297] <= 0.5\ngini = 0.523\nsamples = 289\nvalue = [0, 13, 11, 42, 31, 192]"] ;
40 -> 41 ;
42 [label="X[34] <= 0.5\ngini = 0.514\nsamples = 286\nvalue = [0, 11, 11, 41, 31, 192]"] ;
41 -> 42 ;
43 [label="X[17] <= 0.5\ngini = 0.509\nsamples = 284\nvalue = [0, 11, 11, 41, 29, 192]"] ;
42 -> 43 ;
44 [label="X[0] <= 0.5\ngini = 0.504\nsamples = 282\nvalue = [0, 11, 11, 39, 29, 192]"] ;
43 -> 44 ;
45 [label="X[154] <= 0.5\ngini = 0.499\nsamples = 280\nvalue = [0, 11, 11, 37, 29, 192]"] ;
44 -> 45 ;
46 [label="X[40] <= 0.5\ngini = 0.493\nsamples = 278\nvalue = [0, 11, 11, 35, 29, 192]"] ;
45 -> 46 ;
47 [label="X[342] <= 0.5\ngini = 0.488\nsamples = 276\nvalue = [0, 11, 11, 33, 29, 192]"] ;
46 -> 47 ;
48 [label="X[363] <= 0.5\ngini = 0.482\nsamples = 274\nvalue = [0, 11, 11, 31, 29, 192]"] ;
47 -> 48 ;
49 [label="X[114] <= 0.5\ngini = 0.528\nsamples = 209\nvalue = [0, 9, 9, 27, 26, 138]"] ;
48 -> 49 ;
50 [label="X[398] <= 0.5\ngini = 0.52\nsamples = 207\nvalue = [0, 8, 8, 27, 26, 138]"] ;
49 -> 50 ;
51 [label="X[459] <= 0.5\ngini = 0.512\nsamples = 205\nvalue = [0, 7, 8, 27, 25, 138]"] ;
50 -> 51 ;
52 [label="X[425] <= 0.5\ngini = 0.504\nsamples = 203\nvalue = [0, 6, 8, 27, 24, 138]"] ;
51 -> 52 ;
53 [label="X[325] <= 0.5\ngini = 0.495\nsamples = 201\nvalue = [0, 5, 8, 27, 23, 138]"] ;
52 -> 53 ;
54 [label="X[235] <= 0.5\ngini = 0.486\nsamples = 199\nvalue = [0, 4, 8, 27, 22, 138]"] ;
53 -> 54 ;
55 [label="X[377] <= 0.5\ngini = 0.477\nsamples = 197\nvalue = [0, 4, 7, 27, 21, 138]"] ;
54 -> 55 ;
56 [label="X[305] <= 0.5\ngini = 0.468\nsamples = 195\nvalue = [0, 4, 6, 26, 21, 138]"] ;
55 -> 56 ;
57 [label="X[488] <= 0.5\ngini = 0.463\nsamples = 194\nvalue = [0, 3, 6, 26, 21, 138]"] ;
56 -> 57 ;
58 [label="X[274] <= 0.5\ngini = 0.458\nsamples = 193\nvalue = [0, 2, 6, 26, 21, 138]"] ;
57 -> 58 ;
59 [label="X[445] <= 0.5\ngini = 0.452\nsamples = 192\nvalue = [0, 1, 6, 26, 21, 138]"] ;
58 -> 59 ;
60 [label="X[453] <= 0.5\ngini = 0.478\nsamples = 178\nvalue = [0, 1, 6, 26, 21, 124]"] ;
59 -> 60 ;
61 [label="X[168] <= 0.5\ngini = 0.472\nsamples = 177\nvalue = [0, 0, 6, 26, 21, 124]"] ;
60 -> 61 ;
62 [label="X[133] <= 0.5\ngini = 0.495\nsamples = 166\nvalue = [0, 0, 6, 26, 21, 113]"] ;
61 -> 62 ;
63 [label="X[75] <= 0.5\ngini = 0.486\nsamples = 164\nvalue = [0, 0, 6, 24, 21, 113]"] ;
62 -> 63 ;
64 [label="X[428] <= 0.5\ngini = 0.48\nsamples = 163\nvalue = [0, 0, 5, 24, 21, 113]"] ;
63 -> 64 ;
65 [label="X[268] <= 0.5\ngini = 0.474\nsamples = 162\nvalue = [0, 0, 4, 24, 21, 113]"] ;
64 -> 65 ;
66 [label="X[366] <= 0.5\ngini = 0.468\nsamples = 161\nvalue = [0, 0, 3, 24, 21, 113]"] ;
65 -> 66 ;
67 [label="X[484] <= 0.5\ngini = 0.463\nsamples = 160\nvalue = [0, 0, 3, 24, 20, 113]"] ;
66 -> 67 ;
68 [label="X[350] <= 0.5\ngini = 0.457\nsamples = 159\nvalue = [0, 0, 3, 24, 19, 113]"] ;
67 -> 68 ;
69 [label="X[278] <= 0.5\ngini = 0.452\nsamples = 158\nvalue = [0, 0, 3, 24, 18, 113]"] ;
68 -> 69 ;
70 [label="X[107] <= 0.5\ngini = 0.447\nsamples = 157\nvalue = [0, 0, 3, 24, 17, 113]"] ;
69 -> 70 ;
71 [label="X[5] <= 0.5\ngini = 0.441\nsamples = 156\nvalue = [0, 0, 3, 24, 16, 113]"] ;
70 -> 71 ;
72 [label="X[216] <= 0.5\ngini = 0.435\nsamples = 155\nvalue = [0, 0, 3, 24, 15, 113]"] ;
71 -> 72 ;
73 [label="X[294] <= 0.5\ngini = 0.429\nsamples = 154\nvalue = [0, 0, 3, 24, 14, 113]"] ;
72 -> 73 ;
74 [label="X[448] <= 0.5\ngini = 0.422\nsamples = 153\nvalue = [0, 0, 3, 24, 13, 113]"] ;
73 -> 74 ;
75 [label="X[104] <= 0.5\ngini = 0.416\nsamples = 152\nvalue = [0, 0, 3, 24, 12, 113]"] ;
74 -> 75 ;
76 [label="X[300] <= 0.5\ngini = 0.409\nsamples = 151\nvalue = [0, 0, 3, 24, 11, 113]"] ;
75 -> 76 ;
77 [label="X[424] <= 0.5\ngini = 0.403\nsamples = 150\nvalue = [0, 0, 3, 23, 11, 113]"] ;
76 -> 77 ;
78 [label="X[209] <= 0.5\ngini = 0.397\nsamples = 149\nvalue = [0, 0, 3, 22, 11, 113]"] ;
77 -> 78 ;
79 [label="X[432] <= 0.5\ngini = 0.391\nsamples = 148\nvalue = [0, 0, 3, 21, 11, 113]"] ;
78 -> 79 ;
80 [label="X[185] <= 0.5\ngini = 0.385\nsamples = 147\nvalue = [0, 0, 3, 20, 11, 113]"] ;
79 -> 80 ;
81 [label="X[227] <= 0.5\ngini = 0.378\nsamples = 146\nvalue = [0, 0, 3, 19, 11, 113]"] ;
80 -> 81 ;
82 [label="X[318] <= 0.5\ngini = 0.398\nsamples = 137\nvalue = [0, 0, 3, 19, 11, 104]"] ;
81 -> 82 ;
83 [label="X[61] <= 0.5\ngini = 0.391\nsamples = 135\nvalue = [0, 0, 2, 19, 11, 103]"] ;
82 -> 83 ;
84 [label="X[182] <= 0.5\ngini = 0.382\nsamples = 134\nvalue = [0, 0, 1, 19, 11, 103]"] ;
83 -> 84 ;
85 [label="X[460] <= 0.5\ngini = 0.399\nsamples = 127\nvalue = [0, 0, 1, 19, 11, 96]"] ;
84 -> 85 ;
86 [label="X[31] <= 0.5\ngini = 0.414\nsamples = 121\nvalue = [0, 0, 1, 19, 11, 90]"] ;
85 -> 86 ;
87 [label="X[264] <= 0.5\ngini = 0.43\nsamples = 115\nvalue = [0, 0, 1, 19, 11, 84]"] ;
86 -> 87 ;
88 [label="X[122] <= 0.5\ngini = 0.422\nsamples = 114\nvalue = [0, 0, 1, 19, 10, 84]"] ;
87 -> 88 ;
89 [label="X[136] <= 0.5\ngini = 0.436\nsamples = 109\nvalue = [0, 0, 1, 19, 10, 79]"] ;
88 -> 89 ;
90 [label="X[240] <= 0.5\ngini = 0.451\nsamples = 104\nvalue = [0, 0, 1, 19, 10, 74]"] ;
89 -> 90 ;
91 [label="X[159] <= 0.5\ngini = 0.467\nsamples = 99\nvalue = [0, 0, 1, 19, 10, 69]"] ;
90 -> 91 ;
92 [label="X[440] <= 0.5\ngini = 0.458\nsamples = 98\nvalue = [0, 0, 1, 19, 9, 69]"] ;
91 -> 92 ;
93 [label="X[163] <= 0.5\ngini = 0.472\nsamples = 94\nvalue = [0, 0, 1, 19, 9, 65]"] ;
92 -> 93 ;
94 [label="X[4] <= 0.5\ngini = 0.466\nsamples = 92\nvalue = [0, 0, 1, 19, 8, 64]"] ;
93 -> 94 ;
95 [label="X[241] <= 0.5\ngini = 0.459\nsamples = 90\nvalue = [0, 0, 1, 19, 7, 63]"] ;
94 -> 95 ;
96 [label="X[250] <= 0.5\ngini = 0.47\nsamples = 87\nvalue = [0, 0, 1, 19, 7, 60]"] ;
95 -> 96 ;
97 [label="X[166] <= 0.5\ngini = 0.481\nsamples = 84\nvalue = [0, 0, 1, 19, 7, 57]"] ;
96 -> 97 ;
98 [label="X[33] <= 0.5\ngini = 0.493\nsamples = 81\nvalue = [0, 0, 1, 19, 7, 54]"] ;
97 -> 98 ;
99 [label="X[285] <= 0.5\ngini = 0.505\nsamples = 78\nvalue = [0, 0, 1, 19, 7, 51]"] ;
98 -> 99 ;
100 [label="X[331] <= 0.5\ngini = 0.517\nsamples = 75\nvalue = [0, 0, 1, 19, 7, 48]"] ;
99 -> 100 ;
101 [label="X[272] <= 0.5\ngini = 0.53\nsamples = 72\nvalue = [0, 0, 1, 19, 7, 45]"] ;
100 -> 101 ;
102 [label="X[473] <= 0.5\ngini = 0.543\nsamples = 69\nvalue = [0, 0, 1, 19, 7, 42]"] ;
101 -> 102 ;
103 [label="X[210] <= 0.5\ngini = 0.556\nsamples = 66\nvalue = [0, 0, 1, 19, 7, 39]"] ;
102 -> 103 ;
104 [label="X[50] <= 0.5\ngini = 0.551\nsamples = 65\nvalue = [0, 0, 1, 18, 7, 39]"] ;
103 -> 104 ;
105 [label="X[431] <= 0.5\ngini = 0.561\nsamples = 63\nvalue = [0, 0, 1, 18, 7, 37]"] ;
104 -> 105 ;
106 [label="X[414] <= 0.5\ngini = 0.57\nsamples = 61\nvalue = [0, 0, 1, 18, 7, 35]"] ;
105 -> 106 ;
107 [label="X[204] <= 0.5\ngini = 0.58\nsamples = 59\nvalue = [0, 0, 1, 18, 7, 33]"] ;
106 -> 107 ;
108 [label="X[32] <= 0.5\ngini = 0.578\nsamples = 56\nvalue = [0, 0, 1, 18, 6, 31]"] ;
107 -> 108 ;
109 [label="X[140] <= 0.5\ngini = 0.583\nsamples = 55\nvalue = [0, 0, 1, 18, 6, 30]"] ;
108 -> 109 ;
110 [label="X[254] <= 0.5\ngini = 0.588\nsamples = 54\nvalue = [0, 0, 1, 18, 6, 29]"] ;
109 -> 110 ;
111 [label="X[68] <= 0.5\ngini = 0.592\nsamples = 53\nvalue = [0, 0, 1, 18, 6, 28]"] ;
110 -> 111 ;
112 [label="X[9] <= 0.5\ngini = 0.597\nsamples = 52\nvalue = [0, 0, 1, 18, 6, 27]"] ;
111 -> 112 ;
113 [label="X[475] <= 0.5\ngini = 0.601\nsamples = 51\nvalue = [0, 0, 1, 18, 6, 26]"] ;
112 -> 113 ;
114 [label="X[121] <= 0.5\ngini = 0.606\nsamples = 50\nvalue = [0, 0, 1, 18, 6, 25]"] ;
113 -> 114 ;
115 [label="X[276] <= 0.5\ngini = 0.61\nsamples = 49\nvalue = [0, 0, 1, 18, 6, 24]"] ;
114 -> 115 ;
116 [label="X[233] <= 0.5\ngini = 0.614\nsamples = 48\nvalue = [0, 0, 1, 18, 6, 23]"] ;
115 -> 116 ;
117 [label="X[174] <= 0.5\ngini = 0.617\nsamples = 47\nvalue = [0, 0, 1, 18, 6, 22]"] ;
116 -> 117 ;
118 [label="X[391] <= 0.5\ngini = 0.621\nsamples = 46\nvalue = [0, 0, 1, 18, 6, 21]"] ;
117 -> 118 ;
119 [label="X[44] <= 0.5\ngini = 0.624\nsamples = 45\nvalue = [0, 0, 1, 18, 6, 20]"] ;
118 -> 119 ;
120 [label="X[187] <= 0.5\ngini = 0.627\nsamples = 44\nvalue = [0, 0, 1, 18, 6, 19]"] ;
119 -> 120 ;
121 [label="X[56] <= 0.5\ngini = 0.63\nsamples = 43\nvalue = [0, 0, 1, 18, 6, 18]"] ;
120 -> 121 ;
122 [label="X[361] <= 0.5\ngini = 0.632\nsamples = 42\nvalue = [0, 0, 1, 18, 6, 17]"] ;
121 -> 122 ;
123 [label="gini = 0.633\nsamples = 41\nvalue = [0, 0, 1, 18, 6, 16]"] ;
122 -> 123 ;
124 [label="gini = 0.0\nsamples = 1\nvalue = [0, 0, 0, 0, 0, 1]"] ;
122 -> 124 ;
125 [label="gini = 0.0\nsamples = 1\nvalue = [0, 0, 0, 0, 0, 1]"] ;
121 -> 125 ;
126 [label="gini = 0.0\nsamples = 1\nvalue = [0, 0, 0, 0, 0, 1]"] ;
120 -> 126 ;
127 [label="gini = 0.0\nsamples = 1\nvalue = [0, 0, 0, 0, 0, 1]"] ;
119 -> 127 ;
128 [label="gini = 0.0\nsamples = 1\nvalue = [0, 0, 0, 0, 0, 1]"] ;
118 -> 128 ;
129 [label="gini = 0.0\nsamples = 1\nvalue = [0, 0, 0, 0, 0, 1]"] ;
117 -> 129 ;
130 [label="gini = 0.0\nsamples = 1\nvalue = [0, 0, 0, 0, 0, 1]"] ;
116 -> 130 ;
131 [label="gini = 0.0\nsamples = 1\nvalue = [0, 0, 0, 0, 0, 1]"] ;
115 -> 131 ;
132 [label="gini = 0.0\nsamples = 1\nvalue = [0, 0, 0, 0, 0, 1]"] ;
114 -> 132 ;
133 [label="gini = 0.0\nsamples = 1\nvalue = [0, 0, 0, 0, 0, 1]"] ;
113 -> 133 ;
134 [label="gini = 0.0\nsamples = 1\nvalue = [0, 0, 0, 0, 0, 1]"] ;
112 -> 134 ;
135 [label="gini = 0.0\nsamples = 1\nvalue = [0, 0, 0, 0, 0, 1]"] ;
111 -> 135 ;
136 [label="gini = 0.0\nsamples = 1\nvalue = [0, 0, 0, 0, 0, 1]"] ;
110 -> 136 ;
137 [label="gini = 0.0\nsamples = 1\nvalue = [0, 0, 0, 0, 0, 1]"] ;
109 -> 137 ;
138 [label="gini = 0.0\nsamples = 1\nvalue = [0, 0, 0, 0, 0, 1]"] ;
108 -> 138 ;
139 [label="X[67] <= 0.5\ngini = 0.444\nsamples = 3\nvalue = [0, 0, 0, 0, 1, 2]"] ;
107 -> 139 ;
140 [label="gini = 0.5\nsamples = 2\nvalue = [0, 0, 0, 0, 1, 1]"] ;
139 -> 140 ;
141 [label="gini = 0.0\nsamples = 1\nvalue = [0, 0, 0, 0, 0, 1]"] ;
139 -> 141 ;
142 [label="gini = 0.0\nsamples = 2\nvalue = [0, 0, 0, 0, 0, 2]"] ;
106 -> 142 ;
143 [label="gini = 0.0\nsamples = 2\nvalue = [0, 0, 0, 0, 0, 2]"] ;
105 -> 143 ;
144 [label="gini = 0.0\nsamples = 2\nvalue = [0, 0, 0, 0, 0, 2]"] ;
104 -> 144 ;
145 [label="gini = 0.0\nsamples = 1\nvalue = [0, 0, 0, 1, 0, 0]"] ;
103 -> 145 ;
146 [label="gini = 0.0\nsamples = 3\nvalue = [0, 0, 0, 0, 0, 3]"] ;
102 -> 146 ;
147 [label="gini = 0.0\nsamples = 3\nvalue = [0, 0, 0, 0, 0, 3]"] ;
101 -> 147 ;
148 [label="gini = 0.0\nsamples = 3\nvalue = [0, 0, 0, 0, 0, 3]"] ;
100 -> 148 ;
149 [label="gini = 0.0\nsamples = 3\nvalue = [0, 0, 0, 0, 0, 3]"] ;
99 -> 149 ;
150 [label="gini = 0.0\nsamples = 3\nvalue = [0, 0, 0, 0, 0, 3]"] ;
98 -> 150 ;
151 [label="gini = 0.0\nsamples = 3\nvalue = [0, 0, 0, 0, 0, 3]"] ;
97 -> 151 ;
152 [label="gini = 0.0\nsamples = 3\nvalue = [0, 0, 0, 0, 0, 3]"] ;
96 -> 152 ;
153 [label="gini = 0.0\nsamples = 3\nvalue = [0, 0, 0, 0, 0, 3]"] ;
95 -> 153 ;
154 [label="X[223] <= 0.5\ngini = 0.5\nsamples = 2\nvalue = [0, 0, 0, 0, 1, 1]"] ;
94 -> 154 ;
155 [label="gini = 0.0\nsamples = 1\nvalue = [0, 0, 0, 0, 1, 0]"] ;
154 -> 155 ;
156 [label="gini = 0.0\nsamples = 1\nvalue = [0, 0, 0, 0, 0, 1]"] ;
154 -> 156 ;
157 [label="X[130] <= 0.5\ngini = 0.5\nsamples = 2\nvalue = [0, 0, 0, 0, 1, 1]"] ;
93 -> 157 ;
158 [label="gini = 0.0\nsamples = 1\nvalue = [0, 0, 0, 0, 1, 0]"] ;
157 -> 158 ;
159 [label="gini = 0.0\nsamples = 1\nvalue = [0, 0, 0, 0, 0, 1]"] ;
157 -> 159 ;
160 [label="gini = 0.0\nsamples = 4\nvalue = [0, 0, 0, 0, 0, 4]"] ;
92 -> 160 ;
161 [label="gini = 0.0\nsamples = 1\nvalue = [0, 0, 0, 0, 1, 0]"] ;
91 -> 161 ;
162 [label="gini = 0.0\nsamples = 5\nvalue = [0, 0, 0, 0, 0, 5]"] ;
90 -> 162 ;
163 [label="gini = 0.0\nsamples = 5\nvalue = [0, 0, 0, 0, 0, 5]"] ;
89 -> 163 ;
164 [label="gini = 0.0\nsamples = 5\nvalue = [0, 0, 0, 0, 0, 5]"] ;
88 -> 164 ;
165 [label="gini = 0.0\nsamples = 1\nvalue = [0, 0, 0, 0, 1, 0]"] ;
87 -> 165 ;
166 [label="gini = 0.0\nsamples = 6\nvalue = [0, 0, 0, 0, 0, 6]"] ;
86 -> 166 ;
167 [label="gini = 0.0\nsamples = 6\nvalue = [0, 0, 0, 0, 0, 6]"] ;
85 -> 167 ;
168 [label="gini = 0.0\nsamples = 7\nvalue = [0, 0, 0, 0, 0, 7]"] ;
84 -> 168 ;
169 [label="gini = 0.0\nsamples = 1\nvalue = [0, 0, 1, 0, 0, 0]"] ;
83 -> 169 ;
170 [label="X[217] <= 0.5\ngini = 0.5\nsamples = 2\nvalue = [0, 0, 1, 0, 0, 1]"] ;
82 -> 170 ;
171 [label="gini = 0.0\nsamples = 1\nvalue = [0, 0, 1, 0, 0, 0]"] ;
170 -> 171 ;
172 [label="gini = 0.0\nsamples = 1\nvalue = [0, 0, 0, 0, 0, 1]"] ;
170 -> 172 ;
173 [label="gini = 0.0\nsamples = 9\nvalue = [0, 0, 0, 0, 0, 9]"] ;
81 -> 173 ;
174 [label="gini = 0.0\nsamples = 1\nvalue = [0, 0, 0, 1, 0, 0]"] ;
80 -> 174 ;
175 [label="gini = 0.0\nsamples = 1\nvalue = [0, 0, 0, 1, 0, 0]"] ;
79 -> 175 ;
176 [label="gini = 0.0\nsamples = 1\nvalue = [0, 0, 0, 1, 0, 0]"] ;
78 -> 176 ;
177 [label="gini = 0.0\nsamples = 1\nvalue = [0, 0, 0, 1, 0, 0]"] ;
77 -> 177 ;
178 [label="gini = 0.0\nsamples = 1\nvalue = [0, 0, 0, 1, 0, 0]"] ;
76 -> 178 ;
179 [label="gini = 0.0\nsamples = 1\nvalue = [0, 0, 0, 0, 1, 0]"] ;
75 -> 179 ;
180 [label="gini = 0.0\nsamples = 1\nvalue = [0, 0, 0, 0, 1, 0]"] ;
74 -> 180 ;
181 [label="gini = 0.0\nsamples = 1\nvalue = [0, 0, 0, 0, 1, 0]"] ;
73 -> 181 ;
182 [label="gini = 0.0\nsamples = 1\nvalue = [0, 0, 0, 0, 1, 0]"] ;
72 -> 182 ;
183 [label="gini = 0.0\nsamples = 1\nvalue = [0, 0, 0, 0, 1, 0]"] ;
71 -> 183 ;
184 [label="gini = 0.0\nsamples = 1\nvalue = [0, 0, 0, 0, 1, 0]"] ;
70 -> 184 ;
185 [label="gini = 0.0\nsamples = 1\nvalue = [0, 0, 0, 0, 1, 0]"] ;
69 -> 185 ;
186 [label="gini = 0.0\nsamples = 1\nvalue = [0, 0, 0, 0, 1, 0]"] ;
68 -> 186 ;
187 [label="gini = 0.0\nsamples = 1\nvalue = [0, 0, 0, 0, 1, 0]"] ;
67 -> 187 ;
188 [label="gini = 0.0\nsamples = 1\nvalue = [0, 0, 0, 0, 1, 0]"] ;
66 -> 188 ;
189 [label="gini = 0.0\nsamples = 1\nvalue = [0, 0, 1, 0, 0, 0]"] ;
65 -> 189 ;
190 [label="gini = 0.0\nsamples = 1\nvalue = [0, 0, 1, 0, 0, 0]"] ;
64 -> 190 ;
191 [label="gini = 0.0\nsamples = 1\nvalue = [0, 0, 1, 0, 0, 0]"] ;
63 -> 191 ;
192 [label="gini = 0.0\nsamples = 2\nvalue = [0, 0, 0, 2, 0, 0]"] ;
62 -> 192 ;
193 [label="gini = 0.0\nsamples = 11\nvalue = [0, 0, 0, 0, 0, 11]"] ;
61 -> 193 ;
194 [label="gini = 0.0\nsamples = 1\nvalue = [0, 1, 0, 0, 0, 0]"] ;
60 -> 194 ;
195 [label="gini = 0.0\nsamples = 14\nvalue = [0, 0, 0, 0, 0, 14]"] ;
59 -> 195 ;
196 [label="gini = 0.0\nsamples = 1\nvalue = [0, 1, 0, 0, 0, 0]"] ;
58 -> 196 ;
197 [label="gini = 0.0\nsamples = 1\nvalue = [0, 1, 0, 0, 0, 0]"] ;
57 -> 197 ;
198 [label="gini = 0.0\nsamples = 1\nvalue = [0, 1, 0, 0, 0, 0]"] ;
56 -> 198 ;
199 [label="X[21] <= 0.5\ngini = 0.5\nsamples = 2\nvalue = [0, 0, 1, 1, 0, 0]"] ;
55 -> 199 ;
200 [label="gini = 0.0\nsamples = 1\nvalue = [0, 0, 0, 1, 0, 0]"] ;
199 -> 200 ;
201 [label="gini = 0.0\nsamples = 1\nvalue = [0, 0, 1, 0, 0, 0]"] ;
199 -> 201 ;
202 [label="X[159] <= 0.5\ngini = 0.5\nsamples = 2\nvalue = [0, 0, 1, 0, 1, 0]"] ;
54 -> 202 ;
203 [label="gini = 0.0\nsamples = 1\nvalue = [0, 0, 1, 0, 0, 0]"] ;
202 -> 203 ;
204 [label="gini = 0.0\nsamples = 1\nvalue = [0, 0, 0, 0, 1, 0]"] ;
202 -> 204 ;
205 [label="X[168] <= 0.5\ngini = 0.5\nsamples = 2\nvalue = [0, 1, 0, 0, 1, 0]"] ;
53 -> 205 ;
206 [label="gini = 0.0\nsamples = 1\nvalue = [0, 1, 0, 0, 0, 0]"] ;
205 -> 206 ;
207 [label="gini = 0.0\nsamples = 1\nvalue = [0, 0, 0, 0, 1, 0]"] ;
205 -> 207 ;
208 [label="X[156] <= 0.5\ngini = 0.5\nsamples = 2\nvalue = [0, 1, 0, 0, 1, 0]"] ;
52 -> 208 ;
209 [label="gini = 0.0\nsamples = 1\nvalue = [0, 0, 0, 0, 1, 0]"] ;
208 -> 209 ;
210 [label="gini = 0.0\nsamples = 1\nvalue = [0, 1, 0, 0, 0, 0]"] ;
208 -> 210 ;
211 [label="X[199] <= 0.5\ngini = 0.5\nsamples = 2\nvalue = [0, 1, 0, 0, 1, 0]"] ;
51 -> 211 ;
212 [label="gini = 0.0\nsamples = 1\nvalue = [0, 1, 0, 0, 0, 0]"] ;
211 -> 212 ;
213 [label="gini = 0.0\nsamples = 1\nvalue = [0, 0, 0, 0, 1, 0]"] ;
211 -> 213 ;
214 [label="X[134] <= 0.5\ngini = 0.5\nsamples = 2\nvalue = [0, 1, 0, 0, 1, 0]"] ;
50 -> 214 ;
215 [label="gini = 0.0\nsamples = 1\nvalue = [0, 0, 0, 0, 1, 0]"] ;
214 -> 215 ;
216 [label="gini = 0.0\nsamples = 1\nvalue = [0, 1, 0, 0, 0, 0]"] ;
214 -> 216 ;
217 [label="X[401] <= 0.5\ngini = 0.5\nsamples = 2\nvalue = [0, 1, 1, 0, 0, 0]"] ;
49 -> 217 ;
218 [label="gini = 0.0\nsamples = 1\nvalue = [0, 0, 1, 0, 0, 0]"] ;
217 -> 218 ;
219 [label="gini = 0.0\nsamples = 1\nvalue = [0, 1, 0, 0, 0, 0]"] ;
217 -> 219 ;
220 [label="X[273] <= 0.5\ngini = 0.302\nsamples = 65\nvalue = [0, 2, 2, 4, 3, 54]"] ;
48 -> 220 ;
221 [label="X[314] <= 0.5\ngini = 0.281\nsamples = 64\nvalue = [0, 1, 2, 4, 3, 54]"] ;
220 -> 221 ;
222 [label="X[87] <= 0.5\ngini = 0.258\nsamples = 63\nvalue = [0, 0, 2, 4, 3, 54]"] ;
221 -> 222 ;
223 [label="X[434] <= 0.5\ngini = 0.235\nsamples = 62\nvalue = [0, 0, 1, 4, 3, 54]"] ;
222 -> 223 ;
224 [label="X[71] <= 0.5\ngini = 0.21\nsamples = 61\nvalue = [0, 0, 0, 4, 3, 54]"] ;
223 -> 224 ;
225 [label="X[77] <= 0.5\ngini = 0.184\nsamples = 60\nvalue = [0, 0, 0, 4, 2, 54]"] ;
224 -> 225 ;
226 [label="X[225] <= 0.5\ngini = 0.157\nsamples = 59\nvalue = [0, 0, 0, 4, 1, 54]"] ;
225 -> 226 ;
227 [label="X[431] <= 0.5\ngini = 0.13\nsamples = 58\nvalue = [0, 0, 0, 3, 1, 54]"] ;
226 -> 227 ;
228 [label="X[446] <= 0.5\ngini = 0.101\nsamples = 56\nvalue = [0, 0, 0, 3, 0, 53]"] ;
227 -> 228 ;
229 [label="X[384] <= 0.5\ngini = 0.074\nsamples = 52\nvalue = [0, 0, 0, 2, 0, 50]"] ;
228 -> 229 ;
230 [label="X[240] <= 0.5\ngini = 0.08\nsamples = 48\nvalue = [0, 0, 0, 2, 0, 46]"] ;
229 -> 230 ;
231 [label="X[168] <= 0.5\ngini = 0.087\nsamples = 44\nvalue = [0, 0, 0, 2, 0, 42]"] ;
230 -> 231 ;
232 [label="X[264] <= 0.5\ngini = 0.095\nsamples = 40\nvalue = [0, 0, 0, 2, 0, 38]"] ;
231 -> 232 ;
233 [label="X[31] <= 0.5\ngini = 0.102\nsamples = 37\nvalue = [0, 0, 0, 2, 0, 35]"] ;
232 -> 233 ;
234 [label="X[420] <= 0.5\ngini = 0.111\nsamples = 34\nvalue = [0, 0, 0, 2, 0, 32]"] ;
233 -> 234 ;
235 [label="X[430] <= 0.5\ngini = 0.121\nsamples = 31\nvalue = [0, 0, 0, 2, 0, 29]"] ;
234 -> 235 ;
236 [label="X[296] <= 0.5\ngini = 0.128\nsamples = 29\nvalue = [0, 0, 0, 2, 0, 27]"] ;
235 -> 236 ;
237 [label="X[166] <= 0.5\ngini = 0.137\nsamples = 27\nvalue = [0, 0, 0, 2, 0, 25]"] ;
236 -> 237 ;
238 [label="X[391] <= 0.5\ngini = 0.147\nsamples = 25\nvalue = [0, 0, 0, 2, 0, 23]"] ;
237 -> 238 ;
239 [label="X[406] <= 0.5\ngini = 0.159\nsamples = 23\nvalue = [0, 0, 0, 2, 0, 21]"] ;
238 -> 239 ;
240 [label="X[259] <= 0.5\ngini = 0.172\nsamples = 21\nvalue = [0, 0, 0, 2, 0, 19]"] ;
239 -> 240 ;
241 [label="X[481] <= 0.5\ngini = 0.18\nsamples = 20\nvalue = [0, 0, 0, 2, 0, 18]"] ;
240 -> 241 ;
242 [label="X[440] <= 0.5\ngini = 0.188\nsamples = 19\nvalue = [0, 0, 0, 2, 0, 17]"] ;
241 -> 242 ;
243 [label="X[8] <= 0.5\ngini = 0.198\nsamples = 18\nvalue = [0, 0, 0, 2, 0, 16]"] ;
242 -> 243 ;
244 [label="X[470] <= 0.5\ngini = 0.208\nsamples = 17\nvalue = [0, 0, 0, 2, 0, 15]"] ;
243 -> 244 ;
245 [label="X[224] <= 0.5\ngini = 0.219\nsamples = 16\nvalue = [0, 0, 0, 2, 0, 14]"] ;
244 -> 245 ;
246 [label="X[239] <= 0.5\ngini = 0.231\nsamples = 15\nvalue = [0, 0, 0, 2, 0, 13]"] ;
245 -> 246 ;
247 [label="X[187] <= 0.5\ngini = 0.245\nsamples = 14\nvalue = [0, 0, 0, 2, 0, 12]"] ;
246 -> 247 ;
248 [label="X[445] <= 0.5\ngini = 0.26\nsamples = 13\nvalue = [0, 0, 0, 2, 0, 11]"] ;
247 -> 248 ;
249 [label="X[232] <= 0.5\ngini = 0.278\nsamples = 12\nvalue = [0, 0, 0, 2, 0, 10]"] ;
248 -> 249 ;
250 [label="X[473] <= 0.5\ngini = 0.298\nsamples = 11\nvalue = [0, 0, 0, 2, 0, 9]"] ;
249 -> 250 ;
251 [label="X[210] <= 0.5\ngini = 0.32\nsamples = 10\nvalue = [0, 0, 0, 2, 0, 8]"] ;
250 -> 251 ;
252 [label="gini = 0.346\nsamples = 9\nvalue = [0, 0, 0, 2, 0, 7]"] ;
251 -> 252 ;
253 [label="gini = 0.0\nsamples = 1\nvalue = [0, 0, 0, 0, 0, 1]"] ;
251 -> 253 ;
254 [label="gini = 0.0\nsamples = 1\nvalue = [0, 0, 0, 0, 0, 1]"] ;
250 -> 254 ;
255 [label="gini = 0.0\nsamples = 1\nvalue = [0, 0, 0, 0, 0, 1]"] ;
249 -> 255 ;
256 [label="gini = 0.0\nsamples = 1\nvalue = [0, 0, 0, 0, 0, 1]"] ;
248 -> 256 ;
257 [label="gini = 0.0\nsamples = 1\nvalue = [0, 0, 0, 0, 0, 1]"] ;
247 -> 257 ;
258 [label="gini = 0.0\nsamples = 1\nvalue = [0, 0, 0, 0, 0, 1]"] ;
246 -> 258 ;
259 [label="gini = 0.0\nsamples = 1\nvalue = [0, 0, 0, 0, 0, 1]"] ;
245 -> 259 ;
260 [label="gini = 0.0\nsamples = 1\nvalue = [0, 0, 0, 0, 0, 1]"] ;
244 -> 260 ;
261 [label="gini = 0.0\nsamples = 1\nvalue = [0, 0, 0, 0, 0, 1]"] ;
243 -> 261 ;
262 [label="gini = 0.0\nsamples = 1\nvalue = [0, 0, 0, 0, 0, 1]"] ;
242 -> 262 ;
263 [label="gini = 0.0\nsamples = 1\nvalue = [0, 0, 0, 0, 0, 1]"] ;
241 -> 263 ;
264 [label="gini = 0.0\nsamples = 1\nvalue = [0, 0, 0, 0, 0, 1]"] ;
240 -> 264 ;
265 [label="gini = 0.0\nsamples = 2\nvalue = [0, 0, 0, 0, 0, 2]"] ;
239 -> 265 ;
266 [label="gini = 0.0\nsamples = 2\nvalue = [0, 0, 0, 0, 0, 2]"] ;
238 -> 266 ;
267 [label="gini = 0.0\nsamples = 2\nvalue = [0, 0, 0, 0, 0, 2]"] ;
237 -> 267 ;
268 [label="gini = 0.0\nsamples = 2\nvalue = [0, 0, 0, 0, 0, 2]"] ;
236 -> 268 ;
269 [label="gini = 0.0\nsamples = 2\nvalue = [0, 0, 0, 0, 0, 2]"] ;
235 -> 269 ;
270 [label="gini = 0.0\nsamples = 3\nvalue = [0, 0, 0, 0, 0, 3]"] ;
234 -> 270 ;
271 [label="gini = 0.0\nsamples = 3\nvalue = [0, 0, 0, 0, 0, 3]"] ;
233 -> 271 ;
272 [label="gini = 0.0\nsamples = 3\nvalue = [0, 0, 0, 0, 0, 3]"] ;
232 -> 272 ;
273 [label="gini = 0.0\nsamples = 4\nvalue = [0, 0, 0, 0, 0, 4]"] ;
231 -> 273 ;
274 [label="gini = 0.0\nsamples = 4\nvalue = [0, 0, 0, 0, 0, 4]"] ;
230 -> 274 ;
275 [label="gini = 0.0\nsamples = 4\nvalue = [0, 0, 0, 0, 0, 4]"] ;
229 -> 275 ;
276 [label="X[121] <= 0.5\ngini = 0.375\nsamples = 4\nvalue = [0, 0, 0, 1, 0, 3]"] ;
228 -> 276 ;
277 [label="X[168] <= 0.5\ngini = 0.5\nsamples = 2\nvalue = [0, 0, 0, 1, 0, 1]"] ;
276 -> 277 ;
278 [label="gini = 0.0\nsamples = 1\nvalue = [0, 0, 0, 1, 0, 0]"] ;
277 -> 278 ;
279 [label="gini = 0.0\nsamples = 1\nvalue = [0, 0, 0, 0, 0, 1]"] ;
277 -> 279 ;
280 [label="gini = 0.0\nsamples = 2\nvalue = [0, 0, 0, 0, 0, 2]"] ;
276 -> 280 ;
281 [label="X[397] <= 0.5\ngini = 0.5\nsamples = 2\nvalue = [0, 0, 0, 0, 1, 1]"] ;
227 -> 281 ;
282 [label="gini = 0.0\nsamples = 1\nvalue = [0, 0, 0, 0, 1, 0]"] ;
281 -> 282 ;
283 [label="gini = 0.0\nsamples = 1\nvalue = [0, 0, 0, 0, 0, 1]"] ;
281 -> 283 ;
284 [label="gini = 0.0\nsamples = 1\nvalue = [0, 0, 0, 1, 0, 0]"] ;
226 -> 284 ;
285 [label="gini = 0.0\nsamples = 1\nvalue = [0, 0, 0, 0, 1, 0]"] ;
225 -> 285 ;
286 [label="gini = 0.0\nsamples = 1\nvalue = [0, 0, 0, 0, 1, 0]"] ;
224 -> 286 ;
287 [label="gini = 0.0\nsamples = 1\nvalue = [0, 0, 1, 0, 0, 0]"] ;
223 -> 287 ;
288 [label="gini = 0.0\nsamples = 1\nvalue = [0, 0, 1, 0, 0, 0]"] ;
222 -> 288 ;
289 [label="gini = 0.0\nsamples = 1\nvalue = [0, 1, 0, 0, 0, 0]"] ;
221 -> 289 ;
290 [label="gini = 0.0\nsamples = 1\nvalue = [0, 1, 0, 0, 0, 0]"] ;
220 -> 290 ;
291 [label="gini = 0.0\nsamples = 2\nvalue = [0, 0, 0, 2, 0, 0]"] ;
47 -> 291 ;
292 [label="gini = 0.0\nsamples = 2\nvalue = [0, 0, 0, 2, 0, 0]"] ;
46 -> 292 ;
293 [label="gini = 0.0\nsamples = 2\nvalue = [0, 0, 0, 2, 0, 0]"] ;
45 -> 293 ;
294 [label="gini = 0.0\nsamples = 2\nvalue = [0, 0, 0, 2, 0, 0]"] ;
44 -> 294 ;
295 [label="gini = 0.0\nsamples = 2\nvalue = [0, 0, 0, 2, 0, 0]"] ;
43 -> 295 ;
296 [label="gini = 0.0\nsamples = 2\nvalue = [0, 0, 0, 0, 2, 0]"] ;
42 -> 296 ;
297 [label="X[283] <= 0.5\ngini = 0.444\nsamples = 3\nvalue = [0, 2, 0, 1, 0, 0]"] ;
41 -> 297 ;
298 [label="gini = 0.0\nsamples = 2\nvalue = [0, 2, 0, 0, 0, 0]"] ;
297 -> 298 ;
299 [label="gini = 0.0\nsamples = 1\nvalue = [0, 0, 0, 1, 0, 0]"] ;
297 -> 299 ;
300 [label="gini = 0.0\nsamples = 2\nvalue = [0, 2, 0, 0, 0, 0]"] ;
40 -> 300 ;
301 [label="gini = 0.0\nsamples = 2\nvalue = [0, 2, 0, 0, 0, 0]"] ;
39 -> 301 ;
302 [label="gini = 0.0\nsamples = 2\nvalue = [0, 2, 0, 0, 0, 0]"] ;
38 -> 302 ;
303 [label="X[85] <= 0.5\ngini = 0.444\nsamples = 3\nvalue = [0, 2, 1, 0, 0, 0]"] ;
37 -> 303 ;
304 [label="gini = 0.0\nsamples = 2\nvalue = [0, 2, 0, 0, 0, 0]"] ;
303 -> 304 ;
305 [label="gini = 0.0\nsamples = 1\nvalue = [0, 0, 1, 0, 0, 0]"] ;
303 -> 305 ;
306 [label="gini = 0.0\nsamples = 2\nvalue = [0, 0, 2, 0, 0, 0]"] ;
36 -> 306 ;
307 [label="X[460] <= 0.5\ngini = 0.571\nsamples = 7\nvalue = [0, 4, 1, 0, 0, 2]"] ;
35 -> 307 ;
308 [label="X[26] <= 0.5\ngini = 0.32\nsamples = 5\nvalue = [0, 4, 1, 0, 0, 0]"] ;
307 -> 308 ;
309 [label="gini = 0.0\nsamples = 4\nvalue = [0, 4, 0, 0, 0, 0]"] ;
308 -> 309 ;
310 [label="gini = 0.0\nsamples = 1\nvalue = [0, 0, 1, 0, 0, 0]"] ;
308 -> 310 ;
311 [label="gini = 0.0\nsamples = 2\nvalue = [0, 0, 0, 0, 0, 2]"] ;
307 -> 311 ;
312 [label="gini = 0.0\nsamples = 20\nvalue = [0, 0, 0, 0, 0, 20]"] ;
34 -> 312 ;
313 [label="X[367] <= 0.5\ngini = 0.375\nsamples = 4\nvalue = [0, 0, 3, 0, 1, 0]"] ;
33 -> 313 ;
314 [label="gini = 0.0\nsamples = 3\nvalue = [0, 0, 3, 0, 0, 0]"] ;
313 -> 314 ;
315 [label="gini = 0.0\nsamples = 1\nvalue = [0, 0, 0, 0, 1, 0]"] ;
313 -> 315 ;
316 [label="gini = 0.0\nsamples = 23\nvalue = [0, 0, 0, 0, 0, 23]"] ;
32 -> 316 ;
317 [label="gini = 0.0\nsamples = 24\nvalue = [0, 0, 0, 0, 0, 24]"] ;
31 -> 317 ;
318 [label="X[374] <= 0.5\ngini = 0.64\nsamples = 5\nvalue = [0, 2, 2, 0, 1, 0]"] ;
30 -> 318 ;
319 [label="X[168] <= 0.5\ngini = 0.5\nsamples = 4\nvalue = [0, 2, 2, 0, 0, 0]"] ;
318 -> 319 ;
320 [label="X[44] <= 0.5\ngini = 0.444\nsamples = 3\nvalue = [0, 1, 2, 0, 0, 0]"] ;
319 -> 320 ;
321 [label="gini = 0.0\nsamples = 2\nvalue = [0, 0, 2, 0, 0, 0]"] ;
320 -> 321 ;
322 [label="gini = 0.0\nsamples = 1\nvalue = [0, 1, 0, 0, 0, 0]"] ;
320 -> 322 ;
323 [label="gini = 0.0\nsamples = 1\nvalue = [0, 1, 0, 0, 0, 0]"] ;
319 -> 323 ;
324 [label="gini = 0.0\nsamples = 1\nvalue = [0, 0, 0, 0, 1, 0]"] ;
318 -> 324 ;
325 [label="X[207] <= 0.5\ngini = 0.059\nsamples = 33\nvalue = [1, 0, 0, 0, 0, 32]"] ;
29 -> 325 ;
326 [label="gini = 0.0\nsamples = 32\nvalue = [0, 0, 0, 0, 0, 32]"] ;
325 -> 326 ;
327 [label="gini = 0.0\nsamples = 1\nvalue = [1, 0, 0, 0, 0, 0]"] ;
325 -> 327 ;
328 [label="X[26] <= 0.5\ngini = 0.375\nsamples = 4\nvalue = [0, 3, 0, 1, 0, 0]"] ;
28 -> 328 ;
329 [label="gini = 0.0\nsamples = 3\nvalue = [0, 3, 0, 0, 0, 0]"] ;
328 -> 329 ;
330 [label="gini = 0.0\nsamples = 1\nvalue = [0, 0, 0, 1, 0, 0]"] ;
328 -> 330 ;
331 [label="X[139] <= 0.5\ngini = 0.375\nsamples = 4\nvalue = [0, 3, 0, 0, 1, 0]"] ;
27 -> 331 ;
332 [label="X[388] <= 0.5\ngini = 0.444\nsamples = 3\nvalue = [0, 2, 0, 0, 1, 0]"] ;
331 -> 332 ;
333 [label="X[210] <= 0.5\ngini = 0.5\nsamples = 2\nvalue = [0, 1, 0, 0, 1, 0]"] ;
332 -> 333 ;
334 [label="gini = 0.0\nsamples = 1\nvalue = [0, 0, 0, 0, 1, 0]"] ;
333 -> 334 ;
335 [label="gini = 0.0\nsamples = 1\nvalue = [0, 1, 0, 0, 0, 0]"] ;
333 -> 335 ;
336 [label="gini = 0.0\nsamples = 1\nvalue = [0, 1, 0, 0, 0, 0]"] ;
332 -> 336 ;
337 [label="gini = 0.0\nsamples = 1\nvalue = [0, 1, 0, 0, 0, 0]"] ;
331 -> 337 ;
338 [label="gini = 0.0\nsamples = 3\nvalue = [0, 0, 0, 0, 3, 0]"] ;
26 -> 338 ;
339 [label="gini = 0.0\nsamples = 3\nvalue = [0, 0, 0, 0, 3, 0]"] ;
25 -> 339 ;
340 [label="gini = 0.0\nsamples = 3\nvalue = [0, 3, 0, 0, 0, 0]"] ;
24 -> 340 ;
341 [label="X[445] <= 0.5\ngini = 0.444\nsamples = 9\nvalue = [0, 6, 0, 0, 0, 3]"] ;
23 -> 341 ;
342 [label="X[324] <= 0.5\ngini = 0.5\nsamples = 6\nvalue = [0, 3, 0, 0, 0, 3]"] ;
341 -> 342 ;
343 [label="X[31] <= 0.5\ngini = 0.48\nsamples = 5\nvalue = [0, 3, 0, 0, 0, 2]"] ;
342 -> 343 ;
344 [label="X[260] <= 0.5\ngini = 0.375\nsamples = 4\nvalue = [0, 3, 0, 0, 0, 1]"] ;
343 -> 344 ;
345 [label="gini = 0.0\nsamples = 3\nvalue = [0, 3, 0, 0, 0, 0]"] ;
344 -> 345 ;
346 [label="gini = 0.0\nsamples = 1\nvalue = [0, 0, 0, 0, 0, 1]"] ;
344 -> 346 ;
347 [label="gini = 0.0\nsamples = 1\nvalue = [0, 0, 0, 0, 0, 1]"] ;
343 -> 347 ;
348 [label="gini = 0.0\nsamples = 1\nvalue = [0, 0, 0, 0, 0, 1]"] ;
342 -> 348 ;
349 [label="gini = 0.0\nsamples = 3\nvalue = [0, 3, 0, 0, 0, 0]"] ;
341 -> 349 ;
350 [label="gini = 0.0\nsamples = 4\nvalue = [0, 0, 0, 0, 4, 0]"] ;
22 -> 350 ;
351 [label="gini = 0.0\nsamples = 4\nvalue = [0, 0, 0, 0, 4, 0]"] ;
21 -> 351 ;
352 [label="X[43] <= 0.5\ngini = 0.729\nsamples = 24\nvalue = [0, 9, 4, 1, 3, 7]"] ;
20 -> 352 ;
353 [label="X[91] <= 0.5\ngini = 0.71\nsamples = 20\nvalue = [0, 9, 4, 1, 3, 3]"] ;
352 -> 353 ;
354 [label="X[463] <= 0.5\ngini = 0.679\nsamples = 18\nvalue = [0, 9, 2, 1, 3, 3]"] ;
353 -> 354 ;
355 [label="X[194] <= 0.5\ngini = 0.644\nsamples = 17\nvalue = [0, 9, 2, 0, 3, 3]"] ;
354 -> 355 ;
356 [label="X[20] <= 0.5\ngini = 0.609\nsamples = 16\nvalue = [0, 9, 1, 0, 3, 3]"] ;
355 -> 356 ;
357 [label="X[166] <= 0.5\ngini = 0.56\nsamples = 15\nvalue = [0, 9, 0, 0, 3, 3]"] ;
356 -> 357 ;
358 [label="X[225] <= 0.5\ngini = 0.52\nsamples = 14\nvalue = [0, 9, 0, 0, 3, 2]"] ;
357 -> 358 ;
359 [label="X[132] <= 0.5\ngini = 0.462\nsamples = 13\nvalue = [0, 9, 0, 0, 3, 1]"] ;
358 -> 359 ;
360 [label="X[67] <= 0.5\ngini = 0.375\nsamples = 12\nvalue = [0, 9, 0, 0, 3, 0]"] ;
359 -> 360 ;
361 [label="X[460] <= 0.5\ngini = 0.298\nsamples = 11\nvalue = [0, 9, 0, 0, 2, 0]"] ;
360 -> 361 ;
362 [label="X[137] <= 0.5\ngini = 0.18\nsamples = 10\nvalue = [0, 9, 0, 0, 1, 0]"] ;
361 -> 362 ;
363 [label="gini = 0.0\nsamples = 6\nvalue = [0, 6, 0, 0, 0, 0]"] ;
362 -> 363 ;
364 [label="X[363] <= 0.5\ngini = 0.375\nsamples = 4\nvalue = [0, 3, 0, 0, 1, 0]"] ;
362 -> 364 ;
365 [label="gini = 0.0\nsamples = 3\nvalue = [0, 3, 0, 0, 0, 0]"] ;
364 -> 365 ;
366 [label="gini = 0.0\nsamples = 1\nvalue = [0, 0, 0, 0, 1, 0]"] ;
364 -> 366 ;
367 [label="gini = 0.0\nsamples = 1\nvalue = [0, 0, 0, 0, 1, 0]"] ;
361 -> 367 ;
368 [label="gini = 0.0\nsamples = 1\nvalue = [0, 0, 0, 0, 1, 0]"] ;
360 -> 368 ;
369 [label="gini = 0.0\nsamples = 1\nvalue = [0, 0, 0, 0, 0, 1]"] ;
359 -> 369 ;
370 [label="gini = 0.0\nsamples = 1\nvalue = [0, 0, 0, 0, 0, 1]"] ;
358 -> 370 ;
371 [label="gini = 0.0\nsamples = 1\nvalue = [0, 0, 0, 0, 0, 1]"] ;
357 -> 371 ;
372 [label="gini = 0.0\nsamples = 1\nvalue = [0, 0, 1, 0, 0, 0]"] ;
356 -> 372 ;
373 [label="gini = 0.0\nsamples = 1\nvalue = [0, 0, 1, 0, 0, 0]"] ;
355 -> 373 ;
374 [label="gini = 0.0\nsamples = 1\nvalue = [0, 0, 0, 1, 0, 0]"] ;
354 -> 374 ;
375 [label="gini = 0.0\nsamples = 2\nvalue = [0, 0, 2, 0, 0, 0]"] ;
353 -> 375 ;
376 [label="gini = 0.0\nsamples = 4\nvalue = [0, 0, 0, 0, 0, 4]"] ;
352 -> 376 ;
377 [label="X[111] <= 0.5\ngini = 0.667\nsamples = 9\nvalue = [3, 3, 3, 0, 0, 0]"] ;
19 -> 377 ;
378 [label="X[2] <= 0.5\ngini = 0.5\nsamples = 6\nvalue = [0, 3, 3, 0, 0, 0]"] ;
377 -> 378 ;
379 [label="X[363] <= 0.5\ngini = 0.48\nsamples = 5\nvalue = [0, 2, 3, 0, 0, 0]"] ;
378 -> 379 ;
380 [label="X[122] <= 0.5\ngini = 0.375\nsamples = 4\nvalue = [0, 1, 3, 0, 0, 0]"] ;
379 -> 380 ;
381 [label="gini = 0.0\nsamples = 3\nvalue = [0, 0, 3, 0, 0, 0]"] ;
380 -> 381 ;
382 [label="gini = 0.0\nsamples = 1\nvalue = [0, 1, 0, 0, 0, 0]"] ;
380 -> 382 ;
383 [label="gini = 0.0\nsamples = 1\nvalue = [0, 1, 0, 0, 0, 0]"] ;
379 -> 383 ;
384 [label="gini = 0.0\nsamples = 1\nvalue = [0, 1, 0, 0, 0, 0]"] ;
378 -> 384 ;
385 [label="gini = 0.0\nsamples = 3\nvalue = [3, 0, 0, 0, 0, 0]"] ;
377 -> 385 ;
386 [label="X[375] <= 0.5\ngini = 0.568\nsamples = 9\nvalue = [0, 5, 1, 3, 0, 0]"] ;
18 -> 386 ;
387 [label="X[254] <= 0.5\ngini = 0.449\nsamples = 7\nvalue = [0, 5, 1, 1, 0, 0]"] ;
386 -> 387 ;
388 [label="X[453] <= 0.5\ngini = 0.278\nsamples = 6\nvalue = [0, 5, 0, 1, 0, 0]"] ;
387 -> 388 ;
389 [label="X[243] <= 0.5\ngini = 0.375\nsamples = 4\nvalue = [0, 3, 0, 1, 0, 0]"] ;
388 -> 389 ;
390 [label="X[128] <= 0.5\ngini = 0.444\nsamples = 3\nvalue = [0, 2, 0, 1, 0, 0]"] ;
389 -> 390 ;
391 [label="gini = 0.5\nsamples = 2\nvalue = [0, 1, 0, 1, 0, 0]"] ;
390 -> 391 ;
392 [label="gini = 0.0\nsamples = 1\nvalue = [0, 1, 0, 0, 0, 0]"] ;
390 -> 392 ;
393 [label="gini = 0.0\nsamples = 1\nvalue = [0, 1, 0, 0, 0, 0]"] ;
389 -> 393 ;
394 [label="gini = 0.0\nsamples = 2\nvalue = [0, 2, 0, 0, 0, 0]"] ;
388 -> 394 ;
395 [label="gini = 0.0\nsamples = 1\nvalue = [0, 0, 1, 0, 0, 0]"] ;
387 -> 395 ;
396 [label="gini = 0.0\nsamples = 2\nvalue = [0, 0, 0, 2, 0, 0]"] ;
386 -> 396 ;
397 [label="X[172] <= 0.5\ngini = 0.444\nsamples = 15\nvalue = [0, 0, 0, 0, 10, 5]"] ;
17 -> 397 ;
398 [label="X[290] <= 0.5\ngini = 0.355\nsamples = 13\nvalue = [0, 0, 0, 0, 10, 3]"] ;
397 -> 398 ;
399 [label="X[50] <= 0.5\ngini = 0.278\nsamples = 12\nvalue = [0, 0, 0, 0, 10, 2]"] ;
398 -> 399 ;
400 [label="X[136] <= 0.5\ngini = 0.165\nsamples = 11\nvalue = [0, 0, 0, 0, 10, 1]"] ;
399 -> 400 ;
401 [label="gini = 0.0\nsamples = 10\nvalue = [0, 0, 0, 0, 10, 0]"] ;
400 -> 401 ;
402 [label="gini = 0.0\nsamples = 1\nvalue = [0, 0, 0, 0, 0, 1]"] ;
400 -> 402 ;
403 [label="gini = 0.0\nsamples = 1\nvalue = [0, 0, 0, 0, 0, 1]"] ;
399 -> 403 ;
404 [label="gini = 0.0\nsamples = 1\nvalue = [0, 0, 0, 0, 0, 1]"] ;
398 -> 404 ;
405 [label="gini = 0.0\nsamples = 2\nvalue = [0, 0, 0, 0, 0, 2]"] ;
397 -> 405 ;
406 [label="X[445] <= 0.5\ngini = 0.245\nsamples = 7\nvalue = [1, 0, 0, 6, 0, 0]"] ;
16 -> 406 ;
407 [label="gini = 0.0\nsamples = 6\nvalue = [0, 0, 0, 6, 0, 0]"] ;
406 -> 407 ;
408 [label="gini = 0.0\nsamples = 1\nvalue = [1, 0, 0, 0, 0, 0]"] ;
406 -> 408 ;
409 [label="gini = 0.0\nsamples = 6\nvalue = [0, 0, 0, 0, 6, 0]"] ;
15 -> 409 ;
410 [label="X[442] <= 0.5\ngini = 0.747\nsamples = 42\nvalue = [0, 15, 6, 2, 9, 10]"] ;
14 -> 410 ;
411 [label="X[150] <= 0.5\ngini = 0.734\nsamples = 40\nvalue = [0, 15, 4, 2, 9, 10]"] ;
410 -> 411 ;
412 [label="X[415] <= 0.5\ngini = 0.727\nsamples = 38\nvalue = [0, 15, 4, 2, 7, 10]"] ;
411 -> 412 ;
413 [label="X[117] <= 0.5\ngini = 0.715\nsamples = 36\nvalue = [0, 15, 4, 2, 5, 10]"] ;
412 -> 413 ;
414 [label="X[331] <= 0.5\ngini = 0.694\nsamples = 34\nvalue = [0, 15, 4, 2, 3, 10]"] ;
413 -> 414 ;
415 [label="X[43] <= 0.5\ngini = 0.689\nsamples = 32\nvalue = [0, 15, 4, 2, 3, 8]"] ;
414 -> 415 ;
416 [label="X[353] <= 0.5\ngini = 0.678\nsamples = 30\nvalue = [0, 15, 4, 2, 3, 6]"] ;
415 -> 416 ;
417 [label="X[317] <= 0.5\ngini = 0.656\nsamples = 28\nvalue = [0, 15, 4, 2, 3, 4]"] ;
416 -> 417 ;
418 [label="X[426] <= 0.5\ngini = 0.621\nsamples = 26\nvalue = [0, 15, 3, 2, 3, 3]"] ;
417 -> 418 ;
419 [label="X[309] <= 0.5\ngini = 0.573\nsamples = 24\nvalue = [0, 15, 2, 2, 3, 2]"] ;
418 -> 419 ;
420 [label="X[371] <= 0.5\ngini = 0.541\nsamples = 23\nvalue = [0, 15, 1, 2, 3, 2]"] ;
419 -> 420 ;
421 [label="X[372] <= 0.5\ngini = 0.5\nsamples = 22\nvalue = [0, 15, 0, 2, 3, 2]"] ;
420 -> 421 ;
422 [label="X[7] <= 0.5\ngini = 0.458\nsamples = 21\nvalue = [0, 15, 0, 2, 3, 1]"] ;
421 -> 422 ;
423 [label="X[298] <= 0.5\ngini = 0.405\nsamples = 20\nvalue = [0, 15, 0, 2, 3, 0]"] ;
422 -> 423 ;
424 [label="X[108] <= 0.5\ngini = 0.355\nsamples = 19\nvalue = [0, 15, 0, 2, 2, 0]"] ;
423 -> 424 ;
425 [label="X[89] <= 0.5\ngini = 0.29\nsamples = 18\nvalue = [0, 15, 0, 2, 1, 0]"] ;
424 -> 425 ;
426 [label="X[222] <= 0.5\ngini = 0.227\nsamples = 16\nvalue = [0, 14, 0, 1, 1, 0]"] ;
425 -> 426 ;
427 [label="X[162] <= 0.5\ngini = 0.272\nsamples = 13\nvalue = [0, 11, 0, 1, 1, 0]"] ;
426 -> 427 ;
428 [label="X[320] <= 0.5\ngini = 0.34\nsamples = 10\nvalue = [0, 8, 0, 1, 1, 0]"] ;
427 -> 428 ;
429 [label="X[116] <= 0.5\ngini = 0.406\nsamples = 8\nvalue = [0, 6, 0, 1, 1, 0]"] ;
428 -> 429 ;
430 [label="X[346] <= 0.5\ngini = 0.449\nsamples = 7\nvalue = [0, 5, 0, 1, 1, 0]"] ;
429 -> 430 ;
431 [label="X[480] <= 0.5\ngini = 0.5\nsamples = 6\nvalue = [0, 4, 0, 1, 1, 0]"] ;
430 -> 431 ;
432 [label="X[180] <= 0.5\ngini = 0.56\nsamples = 5\nvalue = [0, 3, 0, 1, 1, 0]"] ;
431 -> 432 ;
433 [label="X[333] <= 0.5\ngini = 0.625\nsamples = 4\nvalue = [0, 2, 0, 1, 1, 0]"] ;
432 -> 433 ;
434 [label="X[120] <= 0.5\ngini = 0.667\nsamples = 3\nvalue = [0, 1, 0, 1, 1, 0]"] ;
433 -> 434 ;
435 [label="gini = 0.5\nsamples = 2\nvalue = [0, 0, 0, 1, 1, 0]"] ;
434 -> 435 ;
436 [label="gini = 0.0\nsamples = 1\nvalue = [0, 1, 0, 0, 0, 0]"] ;
434 -> 436 ;
437 [label="gini = 0.0\nsamples = 1\nvalue = [0, 1, 0, 0, 0, 0]"] ;
433 -> 437 ;
438 [label="gini = 0.0\nsamples = 1\nvalue = [0, 1, 0, 0, 0, 0]"] ;
432 -> 438 ;
439 [label="gini = 0.0\nsamples = 1\nvalue = [0, 1, 0, 0, 0, 0]"] ;
431 -> 439 ;
440 [label="gini = 0.0\nsamples = 1\nvalue = [0, 1, 0, 0, 0, 0]"] ;
430 -> 440 ;
441 [label="gini = 0.0\nsamples = 1\nvalue = [0, 1, 0, 0, 0, 0]"] ;
429 -> 441 ;
442 [label="gini = 0.0\nsamples = 2\nvalue = [0, 2, 0, 0, 0, 0]"] ;
428 -> 442 ;
443 [label="gini = 0.0\nsamples = 3\nvalue = [0, 3, 0, 0, 0, 0]"] ;
427 -> 443 ;
444 [label="gini = 0.0\nsamples = 3\nvalue = [0, 3, 0, 0, 0, 0]"] ;
426 -> 444 ;
445 [label="X[233] <= 0.5\ngini = 0.5\nsamples = 2\nvalue = [0, 1, 0, 1, 0, 0]"] ;
425 -> 445 ;
446 [label="gini = 0.0\nsamples = 1\nvalue = [0, 0, 0, 1, 0, 0]"] ;
445 -> 446 ;
447 [label="gini = 0.0\nsamples = 1\nvalue = [0, 1, 0, 0, 0, 0]"] ;
445 -> 447 ;
448 [label="gini = 0.0\nsamples = 1\nvalue = [0, 0, 0, 0, 1, 0]"] ;
424 -> 448 ;
449 [label="gini = 0.0\nsamples = 1\nvalue = [0, 0, 0, 0, 1, 0]"] ;
423 -> 449 ;
450 [label="gini = 0.0\nsamples = 1\nvalue = [0, 0, 0, 0, 0, 1]"] ;
422 -> 450 ;
451 [label="gini = 0.0\nsamples = 1\nvalue = [0, 0, 0, 0, 0, 1]"] ;
421 -> 451 ;
452 [label="gini = 0.0\nsamples = 1\nvalue = [0, 0, 1, 0, 0, 0]"] ;
420 -> 452 ;
453 [label="gini = 0.0\nsamples = 1\nvalue = [0, 0, 1, 0, 0, 0]"] ;
419 -> 453 ;
454 [label="X[337] <= 0.5\ngini = 0.5\nsamples = 2\nvalue = [0, 0, 1, 0, 0, 1]"] ;
418 -> 454 ;
455 [label="gini = 0.0\nsamples = 1\nvalue = [0, 0, 0, 0, 0, 1]"] ;
454 -> 455 ;
456 [label="gini = 0.0\nsamples = 1\nvalue = [0, 0, 1, 0, 0, 0]"] ;
454 -> 456 ;
457 [label="X[147] <= 0.5\ngini = 0.5\nsamples = 2\nvalue = [0, 0, 1, 0, 0, 1]"] ;
417 -> 457 ;
458 [label="gini = 0.0\nsamples = 1\nvalue = [0, 0, 0, 0, 0, 1]"] ;
457 -> 458 ;
459 [label="gini = 0.0\nsamples = 1\nvalue = [0, 0, 1, 0, 0, 0]"] ;
457 -> 459 ;
460 [label="gini = 0.0\nsamples = 2\nvalue = [0, 0, 0, 0, 0, 2]"] ;
416 -> 460 ;
461 [label="gini = 0.0\nsamples = 2\nvalue = [0, 0, 0, 0, 0, 2]"] ;
415 -> 461 ;
462 [label="gini = 0.0\nsamples = 2\nvalue = [0, 0, 0, 0, 0, 2]"] ;
414 -> 462 ;
463 [label="gini = 0.0\nsamples = 2\nvalue = [0, 0, 0, 0, 2, 0]"] ;
413 -> 463 ;
464 [label="gini = 0.0\nsamples = 2\nvalue = [0, 0, 0, 0, 2, 0]"] ;
412 -> 464 ;
465 [label="gini = 0.0\nsamples = 2\nvalue = [0, 0, 0, 0, 2, 0]"] ;
411 -> 465 ;
466 [label="gini = 0.0\nsamples = 2\nvalue = [0, 0, 2, 0, 0, 0]"] ;
410 -> 466 ;
467 [label="gini = 0.0\nsamples = 7\nvalue = [0, 0, 7, 0, 0, 0]"] ;
13 -> 467 ;
468 [label="X[180] <= 0.5\ngini = 0.198\nsamples = 9\nvalue = [0, 0, 8, 1, 0, 0]"] ;
12 -> 468 ;
469 [label="gini = 0.0\nsamples = 8\nvalue = [0, 0, 8, 0, 0, 0]"] ;
468 -> 469 ;
470 [label="gini = 0.0\nsamples = 1\nvalue = [0, 0, 0, 1, 0, 0]"] ;
468 -> 470 ;
471 [label="X[410] <= 0.5\ngini = 0.165\nsamples = 11\nvalue = [1, 0, 0, 10, 0, 0]"] ;
11 -> 471 ;
472 [label="gini = 0.0\nsamples = 10\nvalue = [0, 0, 0, 10, 0, 0]"] ;
471 -> 472 ;
473 [label="gini = 0.0\nsamples = 1\nvalue = [1, 0, 0, 0, 0, 0]"] ;
471 -> 473 ;
474 [label="X[107] <= 0.5\ngini = 0.207\nsamples = 89\nvalue = [0, 5, 3, 0, 2, 79]"] ;
10 -> 474 ;
475 [label="X[216] <= 0.5\ngini = 0.171\nsamples = 87\nvalue = [0, 5, 1, 0, 2, 79]"] ;
474 -> 475 ;
476 [label="X[117] <= 0.5\ngini = 0.134\nsamples = 85\nvalue = [0, 3, 1, 0, 2, 79]"] ;
475 -> 476 ;
477 [label="X[299] <= 0.5\ngini = 0.114\nsamples = 84\nvalue = [0, 3, 0, 0, 2, 79]"] ;
476 -> 477 ;
478 [label="X[424] <= 0.5\ngini = 0.093\nsamples = 83\nvalue = [0, 3, 0, 0, 1, 79]"] ;
477 -> 478 ;
479 [label="X[221] <= 0.5\ngini = 0.07\nsamples = 82\nvalue = [0, 3, 0, 0, 0, 79]"] ;
478 -> 479 ;
480 [label="X[19] <= 0.5\ngini = 0.048\nsamples = 81\nvalue = [0, 2, 0, 0, 0, 79]"] ;
479 -> 480 ;
481 [label="X[434] <= 0.5\ngini = 0.025\nsamples = 80\nvalue = [0, 1, 0, 0, 0, 79]"] ;
480 -> 481 ;
482 [label="gini = 0.0\nsamples = 79\nvalue = [0, 0, 0, 0, 0, 79]"] ;
481 -> 482 ;
483 [label="gini = 0.0\nsamples = 1\nvalue = [0, 1, 0, 0, 0, 0]"] ;
481 -> 483 ;
484 [label="gini = 0.0\nsamples = 1\nvalue = [0, 1, 0, 0, 0, 0]"] ;
480 -> 484 ;
485 [label="gini = 0.0\nsamples = 1\nvalue = [0, 1, 0, 0, 0, 0]"] ;
479 -> 485 ;
486 [label="gini = 0.0\nsamples = 1\nvalue = [0, 0, 0, 0, 1, 0]"] ;
478 -> 486 ;
487 [label="gini = 0.0\nsamples = 1\nvalue = [0, 0, 0, 0, 1, 0]"] ;
477 -> 487 ;
488 [label="gini = 0.0\nsamples = 1\nvalue = [0, 0, 1, 0, 0, 0]"] ;
476 -> 488 ;
489 [label="gini = 0.0\nsamples = 2\nvalue = [0, 2, 0, 0, 0, 0]"] ;
475 -> 489 ;
490 [label="gini = 0.0\nsamples = 2\nvalue = [0, 0, 2, 0, 0, 0]"] ;
474 -> 490 ;
491 [label="X[293] <= 0.5\ngini = 0.117\nsamples = 16\nvalue = [1, 0, 0, 15, 0, 0]"] ;
9 -> 491 ;
492 [label="gini = 0.0\nsamples = 15\nvalue = [0, 0, 0, 15, 0, 0]"] ;
491 -> 492 ;
493 [label="gini = 0.0\nsamples = 1\nvalue = [1, 0, 0, 0, 0, 0]"] ;
491 -> 493 ;
494 [label="X[203] <= 0.5\ngini = 0.117\nsamples = 16\nvalue = [1, 0, 15, 0, 0, 0]"] ;
8 -> 494 ;
495 [label="gini = 0.0\nsamples = 15\nvalue = [0, 0, 15, 0, 0, 0]"] ;
494 -> 495 ;
496 [label="gini = 0.0\nsamples = 1\nvalue = [1, 0, 0, 0, 0, 0]"] ;
494 -> 496 ;
497 [label="X[52] <= 0.5\ngini = 0.1\nsamples = 19\nvalue = [0, 0, 18, 1, 0, 0]"] ;
7 -> 497 ;
498 [label="gini = 0.0\nsamples = 18\nvalue = [0, 0, 18, 0, 0, 0]"] ;
497 -> 498 ;
499 [label="gini = 0.0\nsamples = 1\nvalue = [0, 0, 0, 1, 0, 0]"] ;
497 -> 499 ;
500 [label="X[189] <= 0.5\ngini = 0.226\nsamples = 24\nvalue = [0, 21, 1, 2, 0, 0]"] ;
6 -> 500 ;
501 [label="X[101] <= 0.5\ngini = 0.159\nsamples = 23\nvalue = [0, 21, 0, 2, 0, 0]"] ;
500 -> 501 ;
502 [label="X[174] <= 0.5\ngini = 0.087\nsamples = 22\nvalue = [0, 21, 0, 1, 0, 0]"] ;
501 -> 502 ;
503 [label="gini = 0.0\nsamples = 21\nvalue = [0, 21, 0, 0, 0, 0]"] ;
502 -> 503 ;
504 [label="gini = 0.0\nsamples = 1\nvalue = [0, 0, 0, 1, 0, 0]"] ;
502 -> 504 ;
505 [label="gini = 0.0\nsamples = 1\nvalue = [0, 0, 0, 1, 0, 0]"] ;
501 -> 505 ;
506 [label="gini = 0.0\nsamples = 1\nvalue = [0, 0, 1, 0, 0, 0]"] ;
500 -> 506 ;
507 [label="X[457] <= 0.5\ngini = 0.145\nsamples = 26\nvalue = [1, 0, 24, 1, 0, 0]"] ;
5 -> 507 ;
508 [label="gini = 0.0\nsamples = 24\nvalue = [0, 0, 24, 0, 0, 0]"] ;
507 -> 508 ;
509 [label="X[37] <= 0.5\ngini = 0.5\nsamples = 2\nvalue = [1, 0, 0, 1, 0, 0]"] ;
507 -> 509 ;
510 [label="gini = 0.0\nsamples = 1\nvalue = [0, 0, 0, 1, 0, 0]"] ;
509 -> 510 ;
511 [label="gini = 0.0\nsamples = 1\nvalue = [1, 0, 0, 0, 0, 0]"] ;
509 -> 511 ;
512 [label="X[256] <= 0.5\ngini = 0.144\nsamples = 159\nvalue = [0, 4, 2, 3, 3, 147]"] ;
4 -> 512 ;
513 [label="X[277] <= 0.5\ngini = 0.111\nsamples = 156\nvalue = [0, 4, 2, 0, 3, 147]"] ;
512 -> 513 ;
514 [label="X[297] <= 0.5\ngini = 0.088\nsamples = 154\nvalue = [0, 4, 0, 0, 3, 147]"] ;
513 -> 514 ;
515 [label="X[325] <= 0.5\ngini = 0.064\nsamples = 152\nvalue = [0, 3, 0, 0, 2, 147]"] ;
514 -> 515 ;
516 [label="X[305] <= 0.5\ngini = 0.052\nsamples = 151\nvalue = [0, 3, 0, 0, 1, 147]"] ;
515 -> 516 ;
517 [label="X[375] <= 0.5\ngini = 0.039\nsamples = 150\nvalue = [0, 2, 0, 0, 1, 147]"] ;
516 -> 517 ;
518 [label="X[306] <= 0.5\ngini = 0.027\nsamples = 149\nvalue = [0, 1, 0, 0, 1, 147]"] ;
517 -> 518 ;
519 [label="X[158] <= 0.5\ngini = 0.013\nsamples = 148\nvalue = [0, 0, 0, 0, 1, 147]"] ;
518 -> 519 ;
520 [label="gini = 0.0\nsamples = 146\nvalue = [0, 0, 0, 0, 0, 146]"] ;
519 -> 520 ;
521 [label="X[427] <= 0.5\ngini = 0.5\nsamples = 2\nvalue = [0, 0, 0, 0, 1, 1]"] ;
519 -> 521 ;
522 [label="gini = 0.0\nsamples = 1\nvalue = [0, 0, 0, 0, 1, 0]"] ;
521 -> 522 ;
523 [label="gini = 0.0\nsamples = 1\nvalue = [0, 0, 0, 0, 0, 1]"] ;
521 -> 523 ;
524 [label="gini = 0.0\nsamples = 1\nvalue = [0, 1, 0, 0, 0, 0]"] ;
518 -> 524 ;
525 [label="gini = 0.0\nsamples = 1\nvalue = [0, 1, 0, 0, 0, 0]"] ;
517 -> 525 ;
526 [label="gini = 0.0\nsamples = 1\nvalue = [0, 1, 0, 0, 0, 0]"] ;
516 -> 526 ;
527 [label="gini = 0.0\nsamples = 1\nvalue = [0, 0, 0, 0, 1, 0]"] ;
515 -> 527 ;
528 [label="X[318] <= 0.5\ngini = 0.5\nsamples = 2\nvalue = [0, 1, 0, 0, 1, 0]"] ;
514 -> 528 ;
529 [label="gini = 0.0\nsamples = 1\nvalue = [0, 0, 0, 0, 1, 0]"] ;
528 -> 529 ;
530 [label="gini = 0.0\nsamples = 1\nvalue = [0, 1, 0, 0, 0, 0]"] ;
528 -> 530 ;
531 [label="gini = 0.0\nsamples = 2\nvalue = [0, 0, 2, 0, 0, 0]"] ;
513 -> 531 ;
532 [label="gini = 0.0\nsamples = 3\nvalue = [0, 0, 0, 3, 0, 0]"] ;
512 -> 532 ;
533 [label="X[37] <= 0.5\ngini = 0.32\nsamples = 48\nvalue = [6, 0, 0, 3, 39, 0]"] ;
3 -> 533 ;
534 [label="X[0] <= 0.5\ngini = 0.172\nsamples = 43\nvalue = [3, 0, 0, 1, 39, 0]"] ;
533 -> 534 ;
535 [label="X[111] <= 0.5\ngini = 0.093\nsamples = 41\nvalue = [2, 0, 0, 0, 39, 0]"] ;
534 -> 535 ;
536 [label="X[275] <= 0.5\ngini = 0.049\nsamples = 40\nvalue = [1, 0, 0, 0, 39, 0]"] ;
535 -> 536 ;
537 [label="gini = 0.0\nsamples = 39\nvalue = [0, 0, 0, 0, 39, 0]"] ;
536 -> 537 ;
538 [label="gini = 0.0\nsamples = 1\nvalue = [1, 0, 0, 0, 0, 0]"] ;
536 -> 538 ;
539 [label="gini = 0.0\nsamples = 1\nvalue = [1, 0, 0, 0, 0, 0]"] ;
535 -> 539 ;
540 [label="X[244] <= 0.5\ngini = 0.5\nsamples = 2\nvalue = [1, 0, 0, 1, 0, 0]"] ;
534 -> 540 ;
541 [label="gini = 0.0\nsamples = 1\nvalue = [0, 0, 0, 1, 0, 0]"] ;
540 -> 541 ;
542 [label="gini = 0.0\nsamples = 1\nvalue = [1, 0, 0, 0, 0, 0]"] ;
540 -> 542 ;
543 [label="X[457] <= 0.5\ngini = 0.48\nsamples = 5\nvalue = [3, 0, 0, 2, 0, 0]"] ;
533 -> 543 ;
544 [label="gini = 0.0\nsamples = 3\nvalue = [3, 0, 0, 0, 0, 0]"] ;
543 -> 544 ;
545 [label="gini = 0.0\nsamples = 2\nvalue = [0, 0, 0, 2, 0, 0]"] ;
543 -> 545 ;
546 [label="X[457] <= 0.5\ngini = 0.364\nsamples = 78\nvalue = [1, 11, 61, 5, 0, 0]"] ;
2 -> 546 ;
547 [label="X[480] <= 0.5\ngini = 0.298\nsamples = 74\nvalue = [0, 11, 61, 2, 0, 0]"] ;
546 -> 547 ;
548 [label="X[247] <= 0.5\ngini = 0.248\nsamples = 71\nvalue = [0, 8, 61, 2, 0, 0]"] ;
547 -> 548 ;
549 [label="X[486] <= 0.5\ngini = 0.171\nsamples = 65\nvalue = [0, 4, 59, 2, 0, 0]"] ;
548 -> 549 ;
550 [label="X[149] <= 0.5\ngini = 0.119\nsamples = 63\nvalue = [0, 4, 59, 0, 0, 0]"] ;
549 -> 550 ;
551 [label="X[173] <= 0.5\ngini = 0.092\nsamples = 62\nvalue = [0, 3, 59, 0, 0, 0]"] ;
550 -> 551 ;
552 [label="X[150] <= 0.5\ngini = 0.063\nsamples = 61\nvalue = [0, 2, 59, 0, 0, 0]"] ;
551 -> 552 ;
553 [label="X[222] <= 0.5\ngini = 0.033\nsamples = 60\nvalue = [0, 1, 59, 0, 0, 0]"] ;
552 -> 553 ;
554 [label="gini = 0.0\nsamples = 55\nvalue = [0, 0, 55, 0, 0, 0]"] ;
553 -> 554 ;
555 [label="X[208] <= 0.5\ngini = 0.32\nsamples = 5\nvalue = [0, 1, 4, 0, 0, 0]"] ;
553 -> 555 ;
556 [label="X[441] <= 0.5\ngini = 0.5\nsamples = 2\nvalue = [0, 1, 1, 0, 0, 0]"] ;
555 -> 556 ;
557 [label="gini = 0.0\nsamples = 1\nvalue = [0, 1, 0, 0, 0, 0]"] ;
556 -> 557 ;
558 [label="gini = 0.0\nsamples = 1\nvalue = [0, 0, 1, 0, 0, 0]"] ;
556 -> 558 ;
559 [label="gini = 0.0\nsamples = 3\nvalue = [0, 0, 3, 0, 0, 0]"] ;
555 -> 559 ;
560 [label="gini = 0.0\nsamples = 1\nvalue = [0, 1, 0, 0, 0, 0]"] ;
552 -> 560 ;
561 [label="gini = 0.0\nsamples = 1\nvalue = [0, 1, 0, 0, 0, 0]"] ;
551 -> 561 ;
562 [label="gini = 0.0\nsamples = 1\nvalue = [0, 1, 0, 0, 0, 0]"] ;
550 -> 562 ;
563 [label="gini = 0.0\nsamples = 2\nvalue = [0, 0, 0, 2, 0, 0]"] ;
549 -> 563 ;
564 [label="X[7] <= 0.5\ngini = 0.444\nsamples = 6\nvalue = [0, 4, 2, 0, 0, 0]"] ;
548 -> 564 ;
565 [label="X[398] <= 0.5\ngini = 0.444\nsamples = 3\nvalue = [0, 1, 2, 0, 0, 0]"] ;
564 -> 565 ;
566 [label="gini = 0.0\nsamples = 2\nvalue = [0, 0, 2, 0, 0, 0]"] ;
565 -> 566 ;
567 [label="gini = 0.0\nsamples = 1\nvalue = [0, 1, 0, 0, 0, 0]"] ;
565 -> 567 ;
568 [label="gini = 0.0\nsamples = 3\nvalue = [0, 3, 0, 0, 0, 0]"] ;
564 -> 568 ;
569 [label="gini = 0.0\nsamples = 3\nvalue = [0, 3, 0, 0, 0, 0]"] ;
547 -> 569 ;
570 [label="X[218] <= 0.5\ngini = 0.375\nsamples = 4\nvalue = [1, 0, 0, 3, 0, 0]"] ;
546 -> 570 ;
571 [label="gini = 0.0\nsamples = 3\nvalue = [0, 0, 0, 3, 0, 0]"] ;
570 -> 571 ;
572 [label="gini = 0.0\nsamples = 1\nvalue = [1, 0, 0, 0, 0, 0]"] ;
570 -> 572 ;
573 [label="X[55] <= 0.5\ngini = 0.444\nsamples = 139\nvalue = [2, 100, 26, 0, 5, 6]"] ;
1 -> 573 ;
574 [label="X[462] <= 0.5\ngini = 0.336\nsamples = 109\nvalue = [1, 88, 9, 0, 5, 6]"] ;
573 -> 574 ;
575 [label="X[101] <= 0.5\ngini = 0.302\nsamples = 106\nvalue = [1, 88, 6, 0, 5, 6]"] ;
574 -> 575 ;
576 [label="X[280] <= 0.5\ngini = 0.263\nsamples = 103\nvalue = [1, 88, 3, 0, 5, 6]"] ;
575 -> 576 ;
577 [label="X[84] <= 0.5\ngini = 0.235\nsamples = 101\nvalue = [1, 88, 3, 0, 3, 6]"] ;
576 -> 577 ;
578 [label="X[404] <= 0.5\ngini = 0.205\nsamples = 99\nvalue = [0, 88, 2, 0, 3, 6]"] ;
577 -> 578 ;
579 [label="X[189] <= 0.5\ngini = 0.147\nsamples = 90\nvalue = [0, 83, 2, 0, 3, 2]"] ;
578 -> 579 ;
580 [label="X[115] <= 0.5\ngini = 0.129\nsamples = 89\nvalue = [0, 83, 1, 0, 3, 2]"] ;
579 -> 580 ;
581 [label="X[324] <= 0.5\ngini = 0.109\nsamples = 88\nvalue = [0, 83, 1, 0, 3, 1]"] ;
580 -> 581 ;
582 [label="X[385] <= 0.5\ngini = 0.089\nsamples = 87\nvalue = [0, 83, 1, 0, 3, 0]"] ;
581 -> 582 ;
583 [label="X[467] <= 0.5\ngini = 0.068\nsamples = 86\nvalue = [0, 83, 1, 0, 2, 0]"] ;
582 -> 583 ;
584 [label="X[21] <= 0.5\ngini = 0.046\nsamples = 85\nvalue = [0, 83, 1, 0, 1, 0]"] ;
583 -> 584 ;
585 [label="X[86] <= 0.5\ngini = 0.024\nsamples = 84\nvalue = [0, 83, 1, 0, 0, 0]"] ;
584 -> 585 ;
586 [label="gini = 0.0\nsamples = 81\nvalue = [0, 81, 0, 0, 0, 0]"] ;
585 -> 586 ;
587 [label="X[54] <= 0.5\ngini = 0.444\nsamples = 3\nvalue = [0, 2, 1, 0, 0, 0]"] ;
585 -> 587 ;
588 [label="gini = 0.0\nsamples = 2\nvalue = [0, 2, 0, 0, 0, 0]"] ;
587 -> 588 ;
589 [label="gini = 0.0\nsamples = 1\nvalue = [0, 0, 1, 0, 0, 0]"] ;
587 -> 589 ;
590 [label="gini = 0.0\nsamples = 1\nvalue = [0, 0, 0, 0, 1, 0]"] ;
584 -> 590 ;
591 [label="gini = 0.0\nsamples = 1\nvalue = [0, 0, 0, 0, 1, 0]"] ;
583 -> 591 ;
592 [label="gini = 0.0\nsamples = 1\nvalue = [0, 0, 0, 0, 1, 0]"] ;
582 -> 592 ;
593 [label="gini = 0.0\nsamples = 1\nvalue = [0, 0, 0, 0, 0, 1]"] ;
581 -> 593 ;
594 [label="gini = 0.0\nsamples = 1\nvalue = [0, 0, 0, 0, 0, 1]"] ;
580 -> 594 ;
595 [label="gini = 0.0\nsamples = 1\nvalue = [0, 0, 1, 0, 0, 0]"] ;
579 -> 595 ;
596 [label="X[82] <= 0.5\ngini = 0.494\nsamples = 9\nvalue = [0, 5, 0, 0, 0, 4]"] ;
578 -> 596 ;
597 [label="X[270] <= 0.5\ngini = 0.278\nsamples = 6\nvalue = [0, 5, 0, 0, 0, 1]"] ;
596 -> 597 ;
598 [label="gini = 0.0\nsamples = 5\nvalue = [0, 5, 0, 0, 0, 0]"] ;
597 -> 598 ;
599 [label="gini = 0.0\nsamples = 1\nvalue = [0, 0, 0, 0, 0, 1]"] ;
597 -> 599 ;
600 [label="gini = 0.0\nsamples = 3\nvalue = [0, 0, 0, 0, 0, 3]"] ;
596 -> 600 ;
601 [label="X[112] <= 0.5\ngini = 0.5\nsamples = 2\nvalue = [1, 0, 1, 0, 0, 0]"] ;
577 -> 601 ;
602 [label="gini = 0.0\nsamples = 1\nvalue = [0, 0, 1, 0, 0, 0]"] ;
601 -> 602 ;
603 [label="gini = 0.0\nsamples = 1\nvalue = [1, 0, 0, 0, 0, 0]"] ;
601 -> 603 ;
604 [label="gini = 0.0\nsamples = 2\nvalue = [0, 0, 0, 0, 2, 0]"] ;
576 -> 604 ;
605 [label="gini = 0.0\nsamples = 3\nvalue = [0, 0, 3, 0, 0, 0]"] ;
575 -> 605 ;
606 [label="gini = 0.0\nsamples = 3\nvalue = [0, 0, 3, 0, 0, 0]"] ;
574 -> 606 ;
607 [label="X[239] <= 0.5\ngini = 0.518\nsamples = 30\nvalue = [1, 12, 17, 0, 0, 0]"] ;
573 -> 607 ;
608 [label="X[321] <= 0.5\ngini = 0.491\nsamples = 27\nvalue = [1, 9, 17, 0, 0, 0]"] ;
607 -> 608 ;
609 [label="X[484] <= 0.5\ngini = 0.458\nsamples = 25\nvalue = [1, 7, 17, 0, 0, 0]"] ;
608 -> 609 ;
610 [label="X[189] <= 0.5\ngini = 0.413\nsamples = 24\nvalue = [0, 7, 17, 0, 0, 0]"] ;
609 -> 610 ;
611 [label="X[251] <= 0.5\ngini = 0.465\nsamples = 19\nvalue = [0, 7, 12, 0, 0, 0]"] ;
610 -> 611 ;
612 [label="X[35] <= 0.5\ngini = 0.415\nsamples = 17\nvalue = [0, 5, 12, 0, 0, 0]"] ;
611 -> 612 ;
613 [label="X[164] <= 0.5\ngini = 0.375\nsamples = 16\nvalue = [0, 4, 12, 0, 0, 0]"] ;
612 -> 613 ;
614 [label="X[208] <= 0.5\ngini = 0.32\nsamples = 15\nvalue = [0, 3, 12, 0, 0, 0]"] ;
613 -> 614 ;
615 [label="gini = 0.0\nsamples = 8\nvalue = [0, 0, 8, 0, 0, 0]"] ;
614 -> 615 ;
616 [label="X[54] <= 0.5\ngini = 0.49\nsamples = 7\nvalue = [0, 3, 4, 0, 0, 0]"] ;
614 -> 616 ;
617 [label="X[107] <= 0.5\ngini = 0.48\nsamples = 5\nvalue = [0, 3, 2, 0, 0, 0]"] ;
616 -> 617 ;
618 [label="X[101] <= 0.5\ngini = 0.375\nsamples = 4\nvalue = [0, 3, 1, 0, 0, 0]"] ;
617 -> 618 ;
619 [label="gini = 0.0\nsamples = 3\nvalue = [0, 3, 0, 0, 0, 0]"] ;
618 -> 619 ;
620 [label="gini = 0.0\nsamples = 1\nvalue = [0, 0, 1, 0, 0, 0]"] ;
618 -> 620 ;
621 [label="gini = 0.0\nsamples = 1\nvalue = [0, 0, 1, 0, 0, 0]"] ;
617 -> 621 ;
622 [label="gini = 0.0\nsamples = 2\nvalue = [0, 0, 2, 0, 0, 0]"] ;
616 -> 622 ;
623 [label="gini = 0.0\nsamples = 1\nvalue = [0, 1, 0, 0, 0, 0]"] ;
613 -> 623 ;
624 [label="gini = 0.0\nsamples = 1\nvalue = [0, 1, 0, 0, 0, 0]"] ;
612 -> 624 ;
625 [label="gini = 0.0\nsamples = 2\nvalue = [0, 2, 0, 0, 0, 0]"] ;
611 -> 625 ;
626 [label="gini = 0.0\nsamples = 5\nvalue = [0, 0, 5, 0, 0, 0]"] ;
610 -> 626 ;
627 [label="gini = 0.0\nsamples = 1\nvalue = [1, 0, 0, 0, 0, 0]"] ;
609 -> 627 ;
628 [label="gini = 0.0\nsamples = 2\nvalue = [0, 2, 0, 0, 0, 0]"] ;
608 -> 628 ;
629 [label="gini = 0.0\nsamples = 3\nvalue = [0, 3, 0, 0, 0, 0]"] ;
607 -> 629 ;
630 [label="X[408] <= 0.5\ngini = 0.417\nsamples = 169\nvalue = [17, 0, 125, 27, 0, 0]"] ;
0 -> 630 [labeldistance=2.5, labelangle=-45, headlabel="False"] ;
631 [label="X[207] <= 0.5\ngini = 0.265\nsamples = 147\nvalue = [8, 0, 125, 14, 0, 0]"] ;
630 -> 631 ;
632 [label="X[17] <= 0.5\ngini = 0.185\nsamples = 139\nvalue = [4, 0, 125, 10, 0, 0]"] ;
631 -> 632 ;
633 [label="X[0] <= 0.5\ngini = 0.115\nsamples = 133\nvalue = [3, 0, 125, 5, 0, 0]"] ;
632 -> 633 ;
634 [label="X[423] <= 0.5\ngini = 0.074\nsamples = 130\nvalue = [1, 0, 125, 4, 0, 0]"] ;
633 -> 634 ;
635 [label="X[229] <= 0.5\ngini = 0.06\nsamples = 129\nvalue = [0, 0, 125, 4, 0, 0]"] ;
634 -> 635 ;
636 [label="X[283] <= 0.5\ngini = 0.046\nsamples = 128\nvalue = [0, 0, 125, 3, 0, 0]"] ;
635 -> 636 ;
637 [label="X[197] <= 0.5\ngini = 0.031\nsamples = 127\nvalue = [0, 0, 125, 2, 0, 0]"] ;
636 -> 637 ;
638 [label="X[70] <= 0.5\ngini = 0.016\nsamples = 126\nvalue = [0, 0, 125, 1, 0, 0]"] ;
637 -> 638 ;
639 [label="gini = 0.0\nsamples = 123\nvalue = [0, 0, 123, 0, 0, 0]"] ;
638 -> 639 ;
640 [label="X[458] <= 0.5\ngini = 0.444\nsamples = 3\nvalue = [0, 0, 2, 1, 0, 0]"] ;
638 -> 640 ;
641 [label="gini = 0.0\nsamples = 2\nvalue = [0, 0, 2, 0, 0, 0]"] ;
640 -> 641 ;
642 [label="gini = 0.0\nsamples = 1\nvalue = [0, 0, 0, 1, 0, 0]"] ;
640 -> 642 ;
643 [label="gini = 0.0\nsamples = 1\nvalue = [0, 0, 0, 1, 0, 0]"] ;
637 -> 643 ;
644 [label="gini = 0.0\nsamples = 1\nvalue = [0, 0, 0, 1, 0, 0]"] ;
636 -> 644 ;
645 [label="gini = 0.0\nsamples = 1\nvalue = [0, 0, 0, 1, 0, 0]"] ;
635 -> 645 ;
646 [label="gini = 0.0\nsamples = 1\nvalue = [1, 0, 0, 0, 0, 0]"] ;
634 -> 646 ;
647 [label="X[18] <= 0.5\ngini = 0.444\nsamples = 3\nvalue = [2, 0, 0, 1, 0, 0]"] ;
633 -> 647 ;
648 [label="gini = 0.0\nsamples = 2\nvalue = [2, 0, 0, 0, 0, 0]"] ;
647 -> 648 ;
649 [label="gini = 0.0\nsamples = 1\nvalue = [0, 0, 0, 1, 0, 0]"] ;
647 -> 649 ;
650 [label="X[55] <= 0.5\ngini = 0.278\nsamples = 6\nvalue = [1, 0, 0, 5, 0, 0]"] ;
632 -> 650 ;
651 [label="gini = 0.0\nsamples = 5\nvalue = [0, 0, 0, 5, 0, 0]"] ;
650 -> 651 ;
652 [label="gini = 0.0\nsamples = 1\nvalue = [1, 0, 0, 0, 0, 0]"] ;
650 -> 652 ;
653 [label="X[416] <= 0.5\ngini = 0.5\nsamples = 8\nvalue = [4, 0, 0, 4, 0, 0]"] ;
631 -> 653 ;
654 [label="X[102] <= 0.5\ngini = 0.32\nsamples = 5\nvalue = [4, 0, 0, 1, 0, 0]"] ;
653 -> 654 ;
655 [label="gini = 0.0\nsamples = 4\nvalue = [4, 0, 0, 0, 0, 0]"] ;
654 -> 655 ;
656 [label="gini = 0.0\nsamples = 1\nvalue = [0, 0, 0, 1, 0, 0]"] ;
654 -> 656 ;
657 [label="gini = 0.0\nsamples = 3\nvalue = [0, 0, 0, 3, 0, 0]"] ;
653 -> 657 ;
658 [label="X[356] <= 0.5\ngini = 0.483\nsamples = 22\nvalue = [9, 0, 0, 13, 0, 0]"] ;
630 -> 658 ;
659 [label="X[363] <= 0.5\ngini = 0.32\nsamples = 15\nvalue = [3, 0, 0, 12, 0, 0]"] ;
658 -> 659 ;
660 [label="X[228] <= 0.5\ngini = 0.153\nsamples = 12\nvalue = [1, 0, 0, 11, 0, 0]"] ;
659 -> 660 ;
661 [label="gini = 0.0\nsamples = 11\nvalue = [0, 0, 0, 11, 0, 0]"] ;
660 -> 661 ;
662 [label="gini = 0.0\nsamples = 1\nvalue = [1, 0, 0, 0, 0, 0]"] ;
660 -> 662 ;
663 [label="X[457] <= 0.5\ngini = 0.444\nsamples = 3\nvalue = [2, 0, 0, 1, 0, 0]"] ;
659 -> 663 ;
664 [label="gini = 0.0\nsamples = 2\nvalue = [2, 0, 0, 0, 0, 0]"] ;
663 -> 664 ;
665 [label="gini = 0.0\nsamples = 1\nvalue = [0, 0, 0, 1, 0, 0]"] ;
663 -> 665 ;
666 [label="X[364] <= 0.5\ngini = 0.245\nsamples = 7\nvalue = [6, 0, 0, 1, 0, 0]"] ;
658 -> 666 ;
667 [label="gini = 0.0\nsamples = 6\nvalue = [6, 0, 0, 0, 0, 0]"] ;
666 -> 667 ;
668 [label="gini = 0.0\nsamples = 1\nvalue = [0, 0, 0, 1, 0, 0]"] ;
666 -> 668 ;
}